/*
 * Copyright (c) 2026 EdgeImpulse Inc.
 *
 * Generated by Edge Impulse and licensed under the applicable Edge Impulse
 * Terms of Service. Community and Professional Terms of Service
 * (https://edgeimpulse.com/legal/terms-of-service) or Enterprise Terms of
 * Service (https://edgeimpulse.com/legal/enterprise-terms-of-service),
 * according to your product plan subscription (the “License”).
 *
 * This software, documentation and other associated files (collectively referred
 * to as the “Software”) is a single SDK variation generated by the Edge Impulse
 * platform and requires an active paid Edge Impulse subscription to use this
 * Software for any purpose.
 *
 * You may NOT use this Software unless you have an active Edge Impulse subscription
 * that meets the eligibility requirements for the applicable License, subject to
 * your full and continued compliance with the terms and conditions of the License,
 * including without limitation any usage restrictions under the applicable License.
 *
 * If you do not have an active Edge Impulse product plan subscription, or if use
 * of this Software exceeds the usage limitations of your Edge Impulse product plan
 * subscription, you are not permitted to use this Software and must immediately
 * delete and erase all copies of this Software within your control or possession.
 * Edge Impulse reserves all rights and remedies available to enforce its rights.
 *
 * Unless required by applicable law or agreed to in writing, the Software is
 * distributed on an "AS IS" BASIS, WITHOUT WARRANTIES OR CONDITIONS OF ANY KIND,
 * either express or implied. See the License for the specific language governing
 * permissions, disclaimers and limitations under the License.
 */
// Generated on: 30.05.2026 05:46:10

#include <stdio.h>
#include <stdlib.h>
#include "edge-impulse-sdk/tensorflow/lite/c/builtin_op_data.h"
#include "edge-impulse-sdk/tensorflow/lite/c/common.h"
#include "edge-impulse-sdk/tensorflow/lite/micro/micro_mutable_op_resolver.h"
#include "edge-impulse-sdk/porting/ei_classifier_porting.h"

#if EI_CLASSIFIER_PRINT_STATE
#if defined(__cplusplus) && EI_C_LINKAGE == 1
extern "C" {
    extern void ei_printf(const char *format, ...);
}
#else
extern void ei_printf(const char *format, ...);
#endif
#endif

#define STRINGIZE(x) #x
#define STRINGIZE_VALUE_OF(x) STRINGIZE(x)

#if defined (__GNUC__)  /* GNU compiler */
#define ALIGN(X) __attribute__((aligned(X)))
#define DEFINE_SECTION(x) __attribute__((section(x)))
#elif defined (_MSC_VER)
#define ALIGN(X) __declspec(align(X))
#elif defined (__TASKING__) /* TASKING Compiler */
#define ALIGN(X) __align(X)
#define DEFINE_SECTION(x) __attribute__((section(x)))
#elif defined (__ARMCC_VERSION) /* Arm Compiler */
#define ALIGN(X) __ALIGNED(x)
#define DEFINE_SECTION(x) __attribute__((section(x)))
#elif defined (__ICCARM__) /* IAR Compiler */
#define ALIGN(x) __attribute__((aligned(x)))
#define DEFINE_SECTION(x) __attribute__((section(x)))
#elif defined (__clang__) /* LLVM/Clang Compiler */
#define ALIGN(X) __ALIGNED(x)
#define DEFINE_SECTION(x) __attribute__((section(x)))
#endif

#if defined(EI_MODEL_SECTION) && (defined(__GNUC__) || defined(__clang__))
#define MODEL_SECTION(X) __attribute__((section(STRINGIZE_VALUE_OF(X))))
#else
#define MODEL_SECTION(X)
#endif

#ifndef EI_MAX_SCRATCH_BUFFER_COUNT
#ifndef CONFIG_IDF_TARGET_ESP32S3
#define EI_MAX_SCRATCH_BUFFER_COUNT 14
#else
#define EI_MAX_SCRATCH_BUFFER_COUNT 28
#endif // CONFIG_IDF_TARGET_ESP32S3
#endif // EI_MAX_SCRATCH_BUFFER_COUNT

#ifndef EI_MAX_OVERFLOW_BUFFER_COUNT
#define EI_MAX_OVERFLOW_BUFFER_COUNT 10
#endif // EI_MAX_OVERFLOW_BUFFER_COUNT

using namespace tflite;
using namespace tflite::ops;
using namespace tflite::ops::micro;

namespace {

#if defined(EI_CLASSIFIER_ALLOCATION_STATIC_HIMAX) || defined(EI_CLASSIFIER_ALLOCATION_STATIC_HIMAX_GNU)
constexpr int kTensorArenaSize = 400704;
#else
constexpr int kTensorArenaSize = 399680;
#endif

#if defined(EI_CLASSIFIER_ALLOCATION_STATIC)
#if defined (EI_TENSOR_ARENA_LOCATION)
uint8_t tensor_arena[kTensorArenaSize] ALIGN(16) DEFINE_SECTION(STRINGIZE_VALUE_OF(EI_TENSOR_ARENA_LOCATION));
#else
uint8_t tensor_arena[kTensorArenaSize] ALIGN(16);
#endif
#elif defined(EI_CLASSIFIER_ALLOCATION_STATIC_HIMAX)
#pragma Bss(".tensor_arena")
uint8_t tensor_arena[kTensorArenaSize] ALIGN(16);
#pragma Bss()
#elif defined(EI_CLASSIFIER_ALLOCATION_STATIC_HIMAX_GNU)
uint8_t tensor_arena[kTensorArenaSize] ALIGN(16) __attribute__((section(".tensor_arena")));
#else
#define EI_CLASSIFIER_ALLOCATION_HEAP 1
uint8_t* tensor_arena = NULL;
#endif

static uint8_t* tensor_boundary;
static uint8_t* current_location;

template <int SZ, class T> struct TfArray {
  int sz; T elem[SZ];
};

enum used_operators_e {
  OP_CONV_2D, OP_DEPTHWISE_CONV_2D, OP_ADD, OP_SOFTMAX,  OP_LAST
};

struct TensorInfo_t { // subset of TfLiteTensor used for initialization from constant memory
  TfLiteAllocationType allocation_type;
  TfLiteType type;
  void* data;
  TfLiteIntArray* dims;
  size_t bytes;
  TfLiteQuantization quantization;
};

typedef struct {
  TfLiteTensor tensor;
  int16_t index;
} TfLiteTensorWithIndex;

typedef struct {
  TfLiteEvalTensor tensor;
  int16_t index;
} TfLiteEvalTensorWithIndex;

TfLiteContext ctx{};
static const int MAX_TFL_TENSOR_COUNT = 4;
static TfLiteTensorWithIndex tflTensors[MAX_TFL_TENSOR_COUNT];
static const int MAX_TFL_EVAL_COUNT = 4;
static TfLiteEvalTensorWithIndex tflEvalTensors[MAX_TFL_EVAL_COUNT];
TfLiteRegistration registrations[OP_LAST];

namespace g0 {
const TfArray<4, int> tensor_dimension0 = { 4, { 1,160,160,3 } };
const TfArray<1, float> quant0_scale = { 1, { 0.0039215688593685627, } };
const TfArray<1, int> quant0_zero = { 1, { -128 } };
const TfLiteAffineQuantization quant0 = { (TfLiteFloatArray*)&quant0_scale, (TfLiteIntArray*)&quant0_zero, 0 };
const MODEL_SECTION(EI_MODEL_SECTION) ALIGN(8) int32_t tensor_data1[3] = { 26377, -31287, -31963, };
const TfArray<1, int> tensor_dimension1 = { 1, { 3 } };
const TfArray<3, float> quant1_scale = { 3, { 0.00023107501328922808, 0.00021474245295394212, 0.00021270934666972607, } };
const TfArray<3, int> quant1_zero = { 3, { 0,0,0 } };
const TfLiteAffineQuantization quant1 = { (TfLiteFloatArray*)&quant1_scale, (TfLiteIntArray*)&quant1_zero, 0 };
const MODEL_SECTION(EI_MODEL_SECTION) ALIGN(16) int8_t tensor_data2[3*1*1*32] = { 
  /* [0][0][][] */ 105,55,127,-73,-74,-10,-6,23,-26,46,15,-11,-55,-80,91,13,-74,62,120,115,-7,-41,56,-109,-105,102,-73,39,101,24,-20,9, 
  /* [1][0][][] */ 39,-37,-83,13,-9,127,-39,-11,121,-45,-2,-86,-63,102,26,-53,92,-47,-27,-96,-113,22,100,73,17,22,2,-20,-90,-53,-3,-28, 
  /* [2][0][][] */ -48,79,-92,72,84,-41,-53,113,94,42,127,-11,-97,-87,83,118,-83,-54,-14,-117,72,118,-49,-88,85,-52,-16,-126,13,-77,86,-34, 
};
const TfArray<4, int> tensor_dimension2 = { 4, { 3,1,1,32 } };
const TfArray<3, float> quant2_scale = { 3, { 0.0035366332158446312, 0.0032866611145436764, 0.0032555442303419113, } };
const TfLiteAffineQuantization quant2 = { (TfLiteFloatArray*)&quant2_scale, (TfLiteIntArray*)&g0::quant1_zero, 0 };
const MODEL_SECTION(EI_MODEL_SECTION) ALIGN(16) int32_t tensor_data3[32] = { 960, 50, 594, -568, 40, 75, 704, -16, 45, -182, 58, 818, -270, -238, 11, 32, -28, -228, 1597, -24, -335, 21, -441, -5, -412, -137, -249, 427, 1051, -121, -236, 295, };
const TfArray<1, int> tensor_dimension3 = { 1, { 32 } };
const TfArray<32, float> quant3_scale = { 32, { 4.563488982967101e-05, 4.1884308302542195e-05, 4.6009892685106024e-05, 4.3836258555529639e-05, 4.3801996071124449e-05, 4.3738509702961892e-05, 4.6660155931022018e-05, 4.1877294279402122e-05, 4.6226617996580899e-05, 4.1978142689913511e-05, 4.1876384784700349e-05, 4.7406269004568458e-05, 4.4750457163900137e-05, 4.2643878259696066e-05, 4.5077984395902604e-05, 4.0310191252501681e-05, 4.2557596316328272e-05, 4.502605224843137e-05, 6.2690465711057186e-05, 4.9923277401831001e-05, 3.9450089388992637e-05, 4.2106843466171995e-05, 4.263306618668139e-05, 4.2094299715245143e-05, 4.293494566809386e-05, 4.468763290788047e-05, 4.1803163185250014e-05, 5.0636681407922879e-05, 4.956313205184415e-05, 4.1155690269079059e-05, 4.0889441152103245e-05, 4.7301593440352008e-05, } };
const TfArray<32, int> quant3_zero = { 32, { 0,0,0,0,0,0,0,0,0,0,0,0,0,0,0,0,0,0,0,0,0,0,0,0,0,0,0,0,0,0,0,0 } };
const TfLiteAffineQuantization quant3 = { (TfLiteFloatArray*)&quant3_scale, (TfLiteIntArray*)&quant3_zero, 0 };
const MODEL_SECTION(EI_MODEL_SECTION) ALIGN(16) int8_t tensor_data4[32*1*1*96] = { 
  /* [0][0][][] */ -29,-36,118,27,95,22,-64,-77,71,-55,-87,5,50,23,-5,63,-29,-14,-46,-70,-62,-76,26,127,-94,-3,91,-31,120,-16,-4,-66,91,-38,-42,73,-82,-60,-77,32,86,-68,-98,118,65,-91,115,5,31,-56,-36,119,-45,-29,-65,99,51,62,122,-89,-68,116,-48,66,15,25,87,87,45,81,108,-102,106,-85,88,94,-103,38,-43,43,58,28,91,1,-41,-28,-71,100,33,122,-18,-102,15,63,23,5, 
  /* [1][0][][] */ -53,35,-72,-3,-36,79,40,7,86,-118,-105,112,70,-25,25,69,109,-41,41,119,-51,-6,37,29,38,22,-40,114,14,6,102,-63,46,108,-15,27,52,64,-13,-64,-62,10,-18,-100,-35,41,-30,-56,-29,-84,127,63,13,86,-75,-53,30,105,72,87,-55,112,-67,-93,-70,38,79,46,110,34,6,16,-116,97,-75,50,87,-50,-41,77,-80,89,-58,-116,31,124,-69,-63,79,85,107,30,90,84,31,0, 
  /* [2][0][][] */ 41,43,-45,96,-29,-17,95,93,-88,104,-28,127,91,-7,95,-104,-32,-18,29,38,-68,1,119,37,-27,74,111,19,-51,65,86,83,-60,-15,-55,-93,-69,94,98,-22,-101,-65,22,7,-71,109,-19,-58,99,34,75,-85,-41,58,41,33,-49,90,-42,8,-19,91,-40,72,78,44,61,87,-95,73,42,-59,38,-78,69,36,-56,-7,13,15,38,-95,14,-41,9,-80,-13,-34,109,111,-24,-2,-48,-50,-40,-40, 
  /* [3][0][][] */ 61,-11,26,-32,-76,41,-120,27,41,9,53,-8,81,84,61,-4,92,86,-66,7,102,-97,-75,-123,-33,-119,-90,94,35,-104,74,-3,-67,-46,-23,-26,-102,-35,28,38,-36,-101,-104,-11,61,17,-58,-93,55,-89,34,-11,83,17,77,-109,-126,-125,-124,-69,-105,25,-47,62,45,-44,-71,-41,-38,-76,-8,89,10,-114,43,-60,22,85,84,-73,-98,-127,25,80,18,33,-53,-126,-92,33,-9,-113,83,-103,-99,35, 
  /* [4][0][][] */ 61,104,-1,49,-13,-41,35,6,63,69,0,48,25,-29,-15,-54,-25,3,-58,30,96,-88,86,25,-7,9,67,-57,-42,50,-64,-39,66,119,-3,-97,-43,1,-113,56,-42,-53,-65,-86,38,112,42,57,26,-32,-4,-61,-84,53,-88,12,45,-81,32,23,19,-87,-23,-60,-33,64,1,-29,39,-94,-120,-72,-45,32,72,54,73,-21,-1,-56,15,-31,-111,-9,6,76,96,14,-127,-68,63,58,42,74,-90,-16, 
  /* [5][0][][] */ 95,-85,74,74,48,-120,26,58,105,-127,2,-83,1,99,33,42,60,64,-68,107,9,48,19,-33,-93,-60,-18,-95,48,39,18,-91,-24,8,-93,22,-107,-31,49,26,-84,-47,40,97,-27,29,38,-46,-97,105,17,37,41,22,28,-32,109,49,-69,-35,35,-89,45,-61,-20,103,-30,29,81,0,72,-73,-41,85,-28,-70,18,-46,14,73,109,50,-1,111,-77,80,-3,42,45,-95,114,96,-12,1,71,-83, 
  /* [6][0][][] */ 20,-32,118,78,-93,-30,16,80,-8,-35,20,-68,90,65,127,-101,62,15,6,86,-51,-89,121,76,-62,-76,14,-35,-4,-111,67,-75,-84,-97,-13,-84,12,49,-89,87,95,60,37,12,-95,107,-69,-21,-69,15,-20,-40,74,-43,108,-18,31,4,-51,118,-79,30,68,-39,-40,70,112,-32,76,11,-63,-1,72,-75,-46,-22,-71,-71,-36,-30,42,-24,63,-18,-48,-60,-26,-87,102,110,85,6,-46,-34,100,3, 
  /* [7][0][][] */ 127,71,-42,-49,-65,104,-19,-3,122,-13,-95,17,56,-88,44,81,50,20,4,125,47,34,-7,87,-64,112,44,57,-76,119,-20,45,15,28,53,103,-108,93,-6,-23,101,-75,92,71,55,2,109,-113,52,-51,-103,-62,-23,93,18,26,124,-88,11,-55,13,-23,90,-117,-66,-51,67,28,-103,26,45,92,90,34,33,60,-58,53,-100,44,99,-30,-34,-69,93,39,-109,104,73,9,98,76,-49,-65,0,-64, 
  /* [8][0][][] */ 18,33,-42,-88,65,10,-68,-18,8,19,47,83,-5,-37,-81,-60,-65,93,-54,28,13,-24,77,100,-100,94,44,69,-59,29,-82,117,92,-25,22,0,112,8,-13,72,79,100,-99,-108,-6,-20,-17,104,23,-76,-50,7,-55,-1,-32,-110,50,105,-88,103,111,19,49,107,-20,-36,-21,97,-69,51,1,3,76,73,-12,22,-34,99,81,64,39,85,-127,-72,28,43,73,-31,17,-32,-70,103,-66,-117,-40,59, 
  /* [9][0][][] */ -4,-2,114,42,81,-105,-53,-125,34,52,-14,55,-17,-86,-108,-32,10,-6,-104,-76,14,100,-112,-109,111,-6,-21,24,-12,-65,-98,98,55,-5,34,-28,-79,11,-39,-50,45,-74,52,-98,76,16,-111,51,44,-13,-82,-52,73,-83,-74,105,85,-62,-9,-7,-96,116,84,-85,-90,-1,105,43,-44,101,127,-91,6,77,-97,-102,-83,-121,-45,99,28,22,121,25,-50,-101,34,-21,112,29,-32,107,110,19,63,-33, 
  /* [10][0][][] */ -57,86,96,-71,-7,93,113,29,42,14,29,-70,101,88,-38,18,-38,86,-95,-56,-29,29,58,-72,41,64,-118,-114,-46,91,-96,-76,83,106,107,76,-40,10,-30,41,-33,123,-110,-37,-97,-54,0,-59,-1,10,48,18,68,26,-66,-42,-98,-11,37,-41,3,64,123,43,127,-72,-100,-18,31,-18,-122,-63,93,75,-114,113,-7,65,72,21,85,7,40,113,-100,75,108,-18,26,12,8,-61,-46,-77,-43,-66, 
  /* [11][0][][] */ 101,22,9,104,107,88,67,37,105,117,-59,126,16,-63,41,-51,-20,-80,90,37,48,92,46,-76,-92,-64,1,99,110,-16,36,-15,-74,-58,96,53,-31,74,-17,-42,-14,106,-51,26,-31,-46,-75,-65,78,96,104,56,-43,-78,36,31,-51,-38,11,-62,-64,127,77,23,31,86,-25,45,76,73,-38,-54,55,94,-38,67,-57,59,-26,89,-89,-14,-37,-34,54,-58,28,-20,-62,3,28,-94,-68,-8,-44,-2, 
  /* [12][0][][] */ 5,60,-58,-3,75,16,-41,27,-79,62,-22,9,-42,5,42,-84,-100,-38,-53,-88,36,-15,11,88,-73,-57,89,-101,81,2,-41,102,-92,-74,-30,9,-10,-79,-24,32,103,30,-113,-45,-27,-88,-45,105,-51,-122,-83,91,28,-7,-86,81,-27,-64,47,56,48,127,-14,44,97,23,-49,105,45,91,65,61,73,101,6,-12,-44,29,-119,-91,-64,91,64,5,-42,23,44,101,-80,-112,80,32,89,3,20,68, 
  /* [13][0][][] */ 109,-59,97,91,96,109,74,66,72,-108,8,-37,80,68,62,-47,-127,-73,-70,39,52,-36,113,-58,-60,28,2,11,-95,-85,85,42,53,106,-34,46,-88,-31,26,68,-69,72,-60,8,-41,30,-5,-29,38,100,-46,-105,-98,33,88,-90,-47,20,-29,-78,-29,107,-75,25,-45,-67,-102,84,-34,-18,94,-12,-94,44,-79,-46,-104,60,77,-67,52,-94,80,23,-85,-109,88,116,-27,-53,-91,62,111,-66,62,-11, 
  /* [14][0][][] */ -63,-112,84,68,76,-36,-14,-119,-74,-50,68,67,-45,-80,-84,-81,-50,-59,-3,4,-58,32,-2,60,-106,-68,-53,27,-121,-126,-90,19,98,-23,-29,-10,92,96,25,-106,-20,-105,25,85,66,-127,48,-77,109,30,62,35,76,-37,-27,0,-63,-5,46,93,-38,-75,-42,46,-105,-11,75,-114,-96,-92,-99,89,-12,78,28,-70,35,-102,53,34,24,-21,-127,-54,-111,-101,-107,83,88,-8,86,-69,70,82,-24,59, 
  /* [15][0][][] */ 27,-25,-27,81,110,-101,71,-106,69,-18,-68,15,117,8,-96,-111,94,16,-95,34,49,24,80,120,94,84,48,103,29,68,72,-97,-5,12,-73,-4,-68,125,120,-63,23,127,-43,-23,31,-75,-40,-83,-7,-76,9,42,-101,-103,-49,-10,80,65,-40,125,-39,-81,11,108,-37,113,-72,12,-55,15,50,-68,25,-6,39,-109,8,60,119,86,-79,72,-120,-57,-122,-30,-90,51,86,80,-99,-31,70,107,-107,127, 
  /* [16][0][][] */ -73,7,100,-64,49,112,-56,45,48,53,-106,64,-22,-46,-54,-55,111,84,74,80,102,78,-36,48,-25,54,-70,59,-102,25,44,19,-87,86,49,71,-29,59,-47,-67,24,-46,68,93,70,108,105,-7,-47,-110,-2,117,-38,127,58,41,32,92,58,17,118,104,44,80,74,16,-40,91,55,93,-35,-17,36,103,79,88,-3,103,-110,-18,18,-75,49,15,13,98,104,12,67,16,-23,121,73,-41,-84,16, 
  /* [17][0][][] */ 32,-108,23,80,-51,-106,-68,-94,40,-74,75,46,100,53,-112,41,28,47,97,100,-76,-16,9,-53,16,58,-79,21,95,-61,-33,66,-30,-27,49,2,-54,92,-87,-35,-94,-45,-20,-14,3,6,79,-110,78,95,-19,17,-21,69,95,-61,-114,79,-82,-114,24,-86,63,87,-91,-77,38,-102,-113,-7,127,23,10,-121,-60,57,102,-51,35,-55,4,-23,-50,-95,-112,65,73,-39,32,71,-104,-122,-20,117,13,13, 
  /* [18][0][][] */ -61,87,115,-8,-23,-24,-37,46,18,102,-57,8,-9,45,86,-45,54,-11,74,-38,106,15,52,-6,7,-71,13,115,57,-7,35,26,13,-7,-12,-52,4,32,14,44,-10,17,4,38,-52,21,24,37,15,-24,48,13,-24,-7,49,82,-23,12,35,-73,58,127,-10,18,-65,-73,28,75,24,-15,4,81,-64,-39,-4,-34,12,79,24,-26,-38,-21,21,-49,94,-9,65,35,-34,-21,-51,52,51,-13,73,32, 
  /* [19][0][][] */ 18,27,66,40,48,-28,85,79,83,-46,26,3,-71,30,-44,52,67,-87,93,45,3,72,-44,16,64,-65,27,-57,-77,-102,-53,39,83,-69,50,0,8,-56,-48,-85,41,-97,-70,11,-73,26,68,-79,-18,32,-34,38,-29,14,10,7,20,88,31,-23,47,-36,84,52,-59,-1,-18,1,-8,46,98,-38,-51,-103,2,-67,-20,-93,15,102,50,-99,6,67,-72,-5,10,-3,95,27,-3,53,-29,127,63,-40, 
  /* [20][0][][] */ -7,68,74,105,-99,100,19,59,13,15,-97,5,10,91,39,-85,-61,-45,-71,-44,39,-50,-89,-76,76,-76,-115,55,24,7,-52,118,95,43,-8,51,37,-40,-20,-122,-94,-42,-98,-116,-38,-74,-78,106,58,-127,-98,39,50,117,59,6,98,80,114,92,119,-53,-80,-48,-37,-76,-56,14,-96,-85,-74,90,-76,-98,25,16,114,78,115,120,87,0,110,-31,59,122,-19,77,34,101,36,66,23,41,-2,3, 
  /* [21][0][][] */ 102,78,72,-108,108,-100,76,15,-1,-88,-69,40,0,41,-58,-86,-110,-28,33,-3,94,-52,71,-88,66,-80,-34,74,16,14,-10,-14,5,24,-113,-116,114,102,-116,-28,-5,11,31,-15,-98,-79,-78,94,-22,-62,2,96,39,76,-102,15,-48,58,-55,127,62,-100,22,-12,91,37,-40,-67,-98,-2,31,83,37,-12,42,69,-105,-33,66,104,19,110,11,-67,28,-95,69,-77,-124,81,123,-106,-38,-94,68,-33, 
  /* [22][0][][] */ 23,-65,-93,-103,83,-59,102,47,-104,74,-84,-125,101,-122,-125,-94,25,76,-116,-67,70,-84,21,21,86,-12,-125,87,-78,-89,-75,-119,65,53,15,2,-10,-25,-70,-123,-7,-23,-8,85,47,-127,84,-30,-68,-87,-2,-24,-81,-102,-58,21,-26,-40,-35,-39,102,-99,-87,-122,-74,10,-124,-52,108,95,-45,-12,-75,0,46,-106,40,-64,57,84,99,-106,-95,-127,71,75,90,-41,-73,25,-82,54,12,-1,-36,91, 
  /* [23][0][][] */ 64,-81,-1,49,100,-121,-1,-106,53,-73,87,64,13,-109,13,-39,88,-29,-109,112,88,-89,108,-44,-10,-20,82,14,65,55,77,-34,-23,55,12,48,101,0,-116,5,-104,-1,2,-111,-66,-86,123,26,89,-117,-99,-49,80,-44,-60,87,-82,-17,88,47,-114,-100,-47,5,55,38,-127,-119,68,-26,114,-83,-2,-28,-23,-102,50,-21,92,116,-54,-45,17,-105,94,2,114,-22,-103,45,94,1,107,-62,-33,76, 
  /* [24][0][][] */ -85,-59,-114,-79,-92,-115,-79,-101,57,109,73,35,104,52,-49,-127,-92,33,17,-55,86,-90,-66,-47,45,-35,64,48,97,53,-6,-70,-3,1,45,19,-64,-94,56,-30,-83,-110,93,-5,13,-47,35,63,-95,-54,-30,10,61,51,63,-83,-13,67,22,-9,80,-15,30,86,-102,87,-56,-98,-108,43,-68,-37,-49,33,87,91,55,-86,-115,-92,-90,-104,-73,-125,-8,54,-24,-110,16,-117,-2,-81,-28,20,-98,22, 
  /* [25][0][][] */ -74,-53,-84,-15,84,-59,-106,45,40,-94,-42,20,65,-5,-107,-25,-74,65,25,-108,75,74,-14,-63,9,-60,-102,29,67,-94,35,106,97,-107,47,71,90,-48,-29,-25,-76,89,-108,0,98,36,73,30,-101,86,-62,-1,36,-15,-63,24,-13,48,-95,67,113,58,46,46,-4,68,-25,-15,-91,-11,-8,-112,29,-115,127,14,61,67,8,22,43,44,-27,74,-77,-47,-104,-93,-25,-41,87,16,-117,-4,-18,-83, 
  /* [26][0][][] */ 56,-119,-28,-21,-101,-13,-14,-19,-116,-127,109,81,-81,-50,4,-16,115,33,-86,-59,11,70,101,9,53,66,11,42,7,10,-99,-3,-13,-61,-109,-104,-67,90,-57,111,-101,104,54,29,-76,74,-39,101,-19,25,-8,103,6,-43,-13,-116,101,71,47,26,4,-107,71,-12,126,-21,-64,56,-91,76,88,98,84,-97,-73,3,49,-111,-101,4,-29,79,83,-78,79,0,-47,14,-88,115,5,19,-57,114,50,85, 
  /* [27][0][][] */ 11,11,-31,-72,-107,4,-46,-1,45,113,39,-63,-15,54,82,-21,73,-8,88,-59,-66,23,-12,-1,-86,42,-72,19,95,42,-14,-7,70,64,-21,-68,-61,-49,-89,83,-74,24,25,25,93,24,64,96,87,76,46,-60,-29,-70,28,-13,96,-19,-42,-64,-50,-21,-25,79,31,-36,-79,99,38,10,-57,16,59,-46,19,-57,37,-43,84,93,77,-25,127,-42,-54,-62,-24,26,-25,2,-23,-45,43,45,76,52, 
  /* [28][0][][] */ 82,9,99,52,-100,4,-60,-49,-27,-50,65,90,-45,-58,21,96,119,107,-16,48,7,50,-65,-32,-102,89,-52,-2,-11,-87,18,-18,-99,23,124,73,41,-85,-22,37,104,51,-64,78,-85,-1,21,58,26,-56,-61,-23,-20,21,66,42,66,8,114,65,-1,13,-83,-4,40,73,17,92,-82,41,-41,-18,78,23,36,-60,-109,-22,-57,53,-59,-84,127,-21,71,-74,77,-67,-57,-47,-11,-74,-30,77,-53,-27, 
  /* [29][0][][] */ 49,54,59,-49,-99,32,-123,7,100,3,-97,-94,118,-111,-46,-53,-99,103,25,-76,-61,-33,57,9,-43,3,-46,-28,-108,-15,108,-9,55,-2,-53,-58,-13,103,-13,94,48,107,-50,85,-3,105,-59,-28,18,-13,52,-103,72,-108,121,59,-100,55,-50,108,-127,126,-105,-55,-69,-70,57,89,93,-91,70,-77,112,72,92,25,113,-63,-34,38,-10,-94,18,-85,63,118,43,76,-20,99,65,77,-113,51,-3,61, 
  /* [30][0][][] */ 21,-75,-73,29,-104,25,-76,-21,112,-18,-9,-46,-106,11,52,9,-7,31,97,-111,39,-113,-123,7,-121,18,-79,120,-13,-114,-101,0,-88,-80,-127,-60,14,-25,-9,17,86,-89,-20,98,100,-51,100,56,-77,78,17,-109,99,-59,-17,99,-85,-58,-85,-60,-113,-4,-79,-30,-114,-100,-106,88,-64,109,49,-44,-94,104,40,-95,-62,-77,-87,-68,24,28,-110,-27,-119,23,-119,107,-43,-126,77,56,-39,-8,7,-77, 
  /* [31][0][][] */ 82,-65,38,97,46,62,-53,-84,-25,27,-66,-75,106,-101,-36,105,-44,-75,35,39,77,38,-15,103,42,-103,37,40,-64,-73,55,104,34,29,-79,21,97,-16,-60,-104,67,-54,-22,49,16,-41,-22,26,77,24,83,-26,-100,-45,-69,31,-100,68,15,106,-35,17,81,-58,68,108,-36,-73,62,-105,-48,20,-79,-40,74,11,-59,-29,47,105,-67,-40,65,70,59,98,-75,18,32,-43,-77,-51,10,127,-4,-18, 
};
const TfArray<4, int> tensor_dimension4 = { 4, { 32,1,1,96 } };
const TfArray<32, float> quant4_scale = { 32, { 0.0019394827540963888, 0.0017800830537453294, 0.0019554204773157835, 0.0018630409613251686, 0.0018615847220644355, 0.0018588865641504526, 0.0019830565433949232, 0.0017797850305214524, 0.0019646312575787306, 0.0017840710934251547, 0.0017797463806346059, 0.0020147664472460747, 0.0019018943421542645, 0.0018123647896572948, 0.0019158142386004329, 0.0017131831264123321, 0.0018086978234350681, 0.0019136072369292378, 0.0026643446180969477, 0.0021217393223196268, 0.0016766288317739964, 0.0017895408673211932, 0.0018119052983820438, 0.0017890076851472259, 0.0018247350817546248, 0.0018992243567481637, 0.0017766343662515283, 0.002152058994397521, 0.0021064330358058214, 0.0017491168109700084, 0.0017378012416884303, 0.0020103177521377802, } };
const TfLiteAffineQuantization quant4 = { (TfLiteFloatArray*)&quant4_scale, (TfLiteIntArray*)&g0::quant3_zero, 0 };
const MODEL_SECTION(EI_MODEL_SECTION) ALIGN(16) int32_t tensor_data5[96] = { -1391, 3236, 5595, 1907, -2517, -2862, 15306, 2004, 2047, -1143, 8201, -207, -5519, 1617, 6590, 3863, 12927, 4765, -2808, -3171, 2967, 26568, 14897, 14601, 765, 552, 3605, 2197, 2087, -3249, 4570, -2491, -179, 3355, -9, 858, 6311, 3277, -1770, 3583, 5402, 4168, 2857, 11656, 2511, 3559, 1259, 5435, 3603, -4880, -4872, 201, -187, -950, 1270, 23, 109, -503, -3093, 7589, -632, 1355, -682, -1415, -2330, 6170, 15986, 1434, -1916, 489, 1002, 1564, 967, -846, 509, 5954, -424, 12917, 12493, -738, 5431, 1368, -190, 1103, 9014, 4945, 2647, 1193, 4154, 2481, -294, -5996, 520, -1354, -1122, -1413, };
const TfArray<1, int> tensor_dimension5 = { 1, { 96 } };
const TfArray<96, float> quant5_scale = { 96, { 0.00045093859080225229, 0.00048591947415843606, 0.00042835919884964824, 0.00046451730304397643, 0.00042126685730181634, 0.00052167515968903899, 0.00021755561465397477, 0.00035836637835018337, 0.0002969907654915005, 0.00054250075481832027, 0.00024232506984844804, 0.00037543717189691961, 0.0004615234793163836, 0.0017442307434976101, 0.00047061784425750375, 0.00029807447572238743, 0.00014589271449949592, 0.00030409501050598919, 0.00069829256972298026, 0.00053208653116598725, 0.00019588723080232739, 0.00010153539915336296, 0.00020643752941396087, 0.00011523160355864093, 0.00024149921955540776, 0.0008793413289822638, 0.00083041837206110358, 0.00049442710587754846, 0.00024363920965697616, 0.00060447829309850931, 0.00032360479235649109, 0.00031072154524736106, 0.00031760177807882428, 0.00034423370379954576, 0.00036252581048756838, 0.00028208360890857875, 0.00030109984800219536, 0.00032966927392408252, 0.00034675220376811922, 0.00049278774531558156, 0.00023096003860700876, 0.00061862572329118848, 0.00053085689432919025, 0.00019905055523850024, 0.00075319706229493022, 0.00028627822757698596, 0.00041573483031243086, 0.00039261500933207572, 0.00038238169508986175, 0.00027078262064605951, 0.00032837761682458222, 0.00028469855897128582, 0.00083258451195433736, 0.00031782081350684166, 0.00062798085855320096, 0.00063864322146400809, 0.00087143899872899055, 0.00050664384616538882, 0.00050073512829840183, 0.00024302200472448021, 0.0011850472074002028, 0.00052413740195333958, 0.00039530210779048502, 0.00053325487533584237, 0.0008058930397965014, 0.00031419718288816512, 0.00013677876268047839, 0.00027408497408032417, 0.00061081052990630269, 0.00065232609631493688, 0.00040838058339431882, 0.00031500248587690294, 0.0014014204498380423, 0.00049347314052283764, 0.00036852003540843725, 0.00036300576175563037, 0.00033396476646885276, 0.00014508559252135456, 0.00014633414684794843, 0.00025470674154348671, 0.00027112153475172818, 0.00024073773238342255, 0.00024877802934497595, 0.00021968505461700261, 0.0002011285541811958, 0.00047387453378178179, 0.00087877904297783971, 0.00023642438463866711, 0.00017572473734617233, 0.00083175813779234886, 0.0003721532120835036, 0.00033052725484594703, 0.00039505265885964036, 0.00072539987741038203, 0.0005632215179502964, 0.00028989251586608589, } };
const TfArray<96, int> quant5_zero = { 96, { 0,0,0,0,0,0,0,0,0,0,0,0,0,0,0,0,0,0,0,0,0,0,0,0,0,0,0,0,0,0,0,0,0,0,0,0,0,0,0,0,0,0,0,0,0,0,0,0,0,0,0,0,0,0,0,0,0,0,0,0,0,0,0,0,0,0,0,0,0,0,0,0,0,0,0,0,0,0,0,0,0,0,0,0,0,0,0,0,0,0,0,0,0,0,0,0 } };
const TfLiteAffineQuantization quant5 = { (TfLiteFloatArray*)&quant5_scale, (TfLiteIntArray*)&quant5_zero, 0 };
const MODEL_SECTION(EI_MODEL_SECTION) ALIGN(16) int8_t tensor_data6[96*1*1*16] = { 
  /* [0][0][][] */ -34,99,-5,-127,-35,-34,-35,-60,-25,14,7,70,18,-62,-6,47, 
  /* [1][0][][] */ -38,23,-65,-9,-33,-36,38,-85,63,47,-59,16,-3,2,41,-127, 
  /* [2][0][][] */ -11,15,-48,47,55,14,-56,-58,127,-33,9,-1,-13,69,-57,28, 
  /* [3][0][][] */ 49,-69,8,-98,-5,-19,-13,5,95,0,62,45,-2,53,14,127, 
  /* [4][0][][] */ -96,61,11,41,20,-26,-9,41,10,3,31,-29,-127,-15,-12,35, 
  /* [5][0][][] */ 2,69,117,8,25,92,-75,74,-58,70,-24,-34,34,-42,-127,15, 
  /* [6][0][][] */ 28,-46,106,-127,46,-9,-31,88,-64,-104,57,-40,-6,79,-15,72, 
  /* [7][0][][] */ 42,110,-23,-56,88,14,-1,-55,127,102,-33,25,33,-25,60,45, 
  /* [8][0][][] */ 7,-84,6,-96,34,-63,23,-75,29,60,80,-13,14,127,86,58, 
  /* [9][0][][] */ 8,-32,-11,127,33,-12,36,-64,-63,105,30,-22,-12,-74,-8,-12, 
  /* [10][0][][] */ -14,27,-51,-127,20,10,-12,38,37,-28,21,-30,-14,-47,10,28, 
  /* [11][0][][] */ -4,24,22,-19,81,-25,84,-49,-76,24,1,22,-7,127,-64,-27, 
  /* [12][0][][] */ 57,-5,-105,-19,33,-65,27,27,23,39,-62,-48,-41,127,2,31, 
  /* [13][0][][] */ -19,9,-21,8,10,-127,-2,19,8,-15,12,-4,9,-13,11,14, 
  /* [14][0][][] */ 30,-29,90,-19,46,17,-127,-77,-24,-31,18,24,15,-44,-23,-26, 
  /* [15][0][][] */ -88,21,-29,-76,2,-8,127,31,-34,49,68,-28,8,75,65,-12, 
  /* [16][0][][] */ 6,77,127,87,13,19,106,89,-102,7,-69,-19,8,0,19,-85, 
  /* [17][0][][] */ -47,-110,-18,30,-69,-28,-59,20,-127,-40,20,-53,-9,39,68,-43, 
  /* [18][0][][] */ 8,35,9,68,36,8,17,-2,66,46,-33,-25,18,127,50,18, 
  /* [19][0][][] */ 1,-12,31,4,100,12,-86,-55,-87,-74,-27,-127,-44,-48,8,-38, 
  /* [20][0][][] */ 98,-20,-50,-30,20,-127,-4,16,-43,44,-98,-14,34,8,15,-19, 
  /* [21][0][][] */ 78,-19,85,-5,-5,15,-8,105,0,-93,69,40,0,127,48,77, 
  /* [22][0][][] */ -37,58,-47,127,-37,-3,97,84,-4,28,-3,30,-12,-1,38,-1, 
  /* [23][0][][] */ 58,14,127,-105,79,-32,-13,66,8,6,17,-36,-12,-28,-123,26, 
  /* [24][0][][] */ -127,37,14,-22,-1,107,34,-20,-4,17,103,-8,-82,18,60,-30, 
  /* [25][0][][] */ 24,29,13,21,21,8,70,-48,1,-127,-11,-23,-13,-31,14,20, 
  /* [26][0][][] */ -38,-7,-4,18,-54,-10,-46,-32,-116,-34,0,-35,11,127,-38,46, 
  /* [27][0][][] */ -9,33,6,64,43,-30,-13,-29,61,1,-23,-4,2,127,-6,17, 
  /* [28][0][][] */ 26,66,71,74,127,-2,22,33,-104,-12,-59,-27,30,107,42,-40, 
  /* [29][0][][] */ -5,4,3,10,25,-4,13,31,-16,-15,-10,-127,-6,-18,-13,6, 
  /* [30][0][][] */ -15,73,-45,78,-44,-12,38,-127,-42,59,-21,3,60,42,73,84, 
  /* [31][0][][] */ -31,-31,-23,-79,-15,4,-59,-117,23,92,-20,-127,-27,-57,-1,26, 
  /* [32][0][][] */ -127,-71,-11,52,58,31,-7,9,2,-50,-94,38,64,-1,61,72, 
  /* [33][0][][] */ -19,-32,-36,-11,-80,-14,-74,6,65,7,20,-54,22,-110,127,32, 
  /* [34][0][][] */ 46,-5,69,30,51,23,-43,82,-73,-51,72,17,9,-7,-17,127, 
  /* [35][0][][] */ -47,61,-77,14,-1,-26,28,-122,93,90,-79,-2,2,-11,86,-127, 
  /* [36][0][][] */ -47,47,8,102,51,8,127,40,4,14,-12,-27,-29,13,-50,-40, 
  /* [37][0][][] */ -2,1,15,-90,12,-9,-28,-44,-78,-21,6,-20,-6,-127,67,-30, 
  /* [38][0][][] */ 49,92,-9,-54,127,-1,30,-47,115,83,-21,1,13,-32,45,11, 
  /* [39][0][][] */ -34,76,-9,-127,-6,20,-54,39,49,-71,-28,-22,17,81,44,33, 
  /* [40][0][][] */ 16,-29,37,-95,-6,-11,0,-47,-127,-1,-22,-17,-1,-112,67,-78, 
  /* [41][0][][] */ -11,-12,-38,-14,7,-33,18,-5,-24,9,-39,-10,-127,11,28,24, 
  /* [42][0][][] */ 127,96,-25,-13,-66,-39,-26,-46,13,24,89,-57,-56,49,107,-111, 
  /* [43][0][][] */ 5,113,-72,16,63,0,115,-38,66,124,-69,15,53,-127,-103,-64, 
  /* [44][0][][] */ -20,-17,7,-30,54,10,-88,-127,-27,1,8,10,2,-36,58,-66, 
  /* [45][0][][] */ -2,30,-127,-27,14,-56,16,-75,9,38,-5,-59,34,-30,62,-22, 
  /* [46][0][][] */ 1,1,-22,-81,-5,9,17,-26,-111,-24,16,10,-13,-127,72,-32, 
  /* [47][0][][] */ 20,46,24,-10,127,-14,-28,20,-51,35,0,21,3,-2,109,-33, 
  /* [48][0][][] */ -127,-83,-30,27,56,15,15,-28,-10,-13,-119,47,61,13,76,64, 
  /* [49][0][][] */ 25,4,109,89,122,1,36,32,-127,-36,-41,-70,24,126,11,-61, 
  /* [50][0][][] */ 51,-29,-93,3,44,-127,-49,-21,-9,-21,-18,-33,57,-5,-24,24, 
  /* [51][0][][] */ 2,39,43,15,37,3,2,30,-127,49,14,-118,10,-120,-26,85, 
  /* [52][0][][] */ 10,43,7,55,36,4,14,35,61,88,-33,-43,41,127,53,14, 
  /* [53][0][][] */ -12,-45,-15,-19,-83,-15,-77,3,45,16,20,-63,25,-127,124,10, 
  /* [54][0][][] */ 68,-29,-42,14,115,78,-127,-48,-88,4,-45,-69,13,-41,-24,-48, 
  /* [55][0][][] */ 55,-18,2,6,37,-38,-65,-127,-35,-80,-71,15,-7,-24,16,2, 
  /* [56][0][][] */ -24,18,19,-28,-5,-33,-94,63,-15,127,2,-19,25,-1,0,6, 
  /* [57][0][][] */ -7,23,-47,-20,-46,-49,122,98,-23,24,-8,-9,26,17,127,-2, 
  /* [58][0][][] */ 57,16,-127,39,85,95,-42,56,-112,-32,-8,16,-28,26,-7,-29, 
  /* [59][0][][] */ -98,66,105,17,-71,-69,127,120,27,-2,32,-22,9,7,68,-4, 
  /* [60][0][][] */ 2,-2,-47,3,32,-127,-18,7,1,-29,1,-30,22,-13,6,4, 
  /* [61][0][][] */ 22,-4,17,127,76,9,26,4,-123,9,15,50,-10,21,36,-64, 
  /* [62][0][][] */ -52,127,12,-51,-17,-15,-58,50,-14,-66,-74,-58,-13,-88,-48,-31, 
  /* [63][0][][] */ -54,33,-37,127,-75,10,-72,-33,-59,-32,-18,-45,20,58,52,38, 
  /* [64][0][][] */ 11,-1,1,45,3,12,-14,63,29,5,-20,-39,-10,-127,46,-10, 
  /* [65][0][][] */ -22,-40,11,-127,48,-44,73,-29,-7,46,15,-124,-21,2,17,-63, 
  /* [66][0][][] */ 49,-31,67,-17,-16,17,-1,85,2,-47,27,45,15,127,2,54, 
  /* [67][0][][] */ 5,49,-12,-127,-17,5,-70,37,81,-92,-33,0,38,90,73,50, 
  /* [68][0][][] */ -24,29,127,17,6,9,-11,5,-44,-16,-22,-28,18,-14,78,-36, 
  /* [69][0][][] */ 127,83,-7,8,-75,-27,-37,-28,13,19,92,-54,-59,61,64,-98, 
  /* [70][0][][] */ 24,-4,-63,-13,-33,24,60,127,-40,97,-40,6,10,45,-21,25, 
  /* [71][0][][] */ 13,-6,-2,6,2,-83,1,19,-35,19,-84,9,-127,2,37,50, 
  /* [72][0][][] */ 11,26,-127,11,15,12,31,98,-44,-30,10,-12,18,15,-4,2, 
  /* [73][0][][] */ -56,29,42,11,57,-38,-75,-127,24,-75,42,-23,9,-42,42,-25, 
  /* [74][0][][] */ -1,38,36,121,17,-12,-84,79,-81,18,-46,42,14,-127,37,-100, 
  /* [75][0][][] */ -20,39,-51,6,27,-13,32,-9,127,13,-5,-13,4,121,-35,-1, 
  /* [76][0][][] */ 4,-20,2,23,2,-10,-16,67,13,-31,-24,-127,-1,-3,5,17, 
  /* [77][0][][] */ -22,40,-20,127,-35,11,88,113,19,32,2,28,-25,-25,-5,-26, 
  /* [78][0][][] */ -8,15,19,-127,65,-42,-24,36,35,-62,18,-51,16,115,29,32, 
  /* [79][0][][] */ -20,-95,-79,-63,-85,-12,28,-82,127,14,31,53,16,35,47,-53, 
  /* [80][0][][] */ -58,10,103,-83,43,-41,23,-83,-50,38,-30,-127,18,88,97,-53, 
  /* [81][0][][] */ -53,51,-126,25,72,-127,-9,61,-2,-53,70,-8,21,5,12,-6, 
  /* [82][0][][] */ 127,-16,-7,19,10,-121,-13,22,-20,-18,-114,-11,116,-5,-2,38, 
  /* [83][0][][] */ -36,70,-120,-76,-33,-11,39,-127,78,55,-46,-117,20,49,60,107, 
  /* [84][0][][] */ -25,24,66,-30,-11,-30,69,-127,-48,48,-21,-54,35,50,54,-14, 
  /* [85][0][][] */ -75,127,29,-116,-64,-27,-23,-5,-54,0,-71,18,6,-8,-95,-31, 
  /* [86][0][][] */ -16,7,-39,3,-27,-35,127,17,2,-26,7,7,5,29,99,-21, 
  /* [87][0][][] */ -19,-45,1,-127,4,-37,49,-21,-9,25,-14,-123,-14,1,12,-35, 
  /* [88][0][][] */ 98,-17,47,-20,30,-127,9,32,-55,33,-113,-67,36,25,87,13, 
  /* [89][0][][] */ 31,-26,-36,-54,17,-12,-21,-6,-54,10,24,-63,127,-2,19,-41, 
  /* [90][0][][] */ 3,-55,40,-50,59,1,-66,85,56,-81,-42,-20,-9,114,15,-127, 
  /* [91][0][][] */ -48,-8,-19,-28,23,-9,-36,-90,10,54,-8,-127,-31,-18,11,5, 
  /* [92][0][][] */ -20,17,41,19,-3,-127,8,-2,-3,-21,-2,-10,6,-23,16,9, 
  /* [93][0][][] */ 36,-37,127,-26,-73,53,45,-40,-33,21,-77,-30,-36,-9,49,14, 
  /* [94][0][][] */ 31,-3,-10,-19,27,-1,-16,-6,-30,-16,11,-52,127,-12,27,-28, 
  /* [95][0][][] */ 127,81,3,38,-95,-9,-69,1,-27,-13,80,-37,-36,31,69,-71, 
};
const TfArray<4, int> tensor_dimension6 = { 4, { 96,1,1,16 } };
const TfArray<96, float> quant6_scale = { 96, { 0.00085629260865971446, 0.00092271820176392794, 0.00081341632176190615, 0.00088207738008350134, 0.00079994858242571354, 0.00099061510991305113, 0.00041311891982331872, 0.00068050611298531294, 0.00056395924184471369, 0.0010301610454916954, 0.00046015394036658108, 0.00071292207576334476, 0.0008763923542574048, 0.0033121402375400066, 0.0008936617523431778, 0.00056601711548864841, 0.00027703738305717707, 0.00057744962396100163, 0.0013259960105642676, 0.0010103853419423103, 0.00037197256460785866, 0.00019280676497146487, 0.00039200665196403861, 0.00021881464635953307, 0.00045858570956625044, 0.0016697916435077786, 0.00157689128536731, 0.00093887350521981716, 0.00046264936099760234, 0.0011478509986773133, 0.00061449693748727441, 0.00059003278147429228, 0.00060309778200462461, 0.00065366941271349788, 0.00068840454332530499, 0.00053565186681225896, 0.00057176203699782491, 0.00062601285753771663, 0.00065845187054947019, 0.0009357604430988431, 0.00043857275159098208, 0.0011747156968340278, 0.0010080503998324275, 0.00037797944969497621, 0.0014302547788247466, 0.00054361711954697967, 0.00078944378765299916, 0.00074554124148562551, 0.00072610907955095172, 0.0005141923320479691, 0.00062356010312214494, 0.00054061744594946504, 0.0015810045879334211, 0.00060351367574185133, 0.0011924802092835307, 0.0012127271620556712, 0.0016547858249396086, 0.00096207199385389686, 0.00095085188513621688, 0.00046147734974510968, 0.0022503000218421221, 0.00099529069848358631, 0.00075064384145662189, 0.0010126039851456881, 0.0015303198015317321, 0.00059663271531462669, 0.00025973079027608037, 0.00052046315977349877, 0.0011598753044381738, 0.0012387096649035811, 0.00077547872206196189, 0.00059816194698214531, 0.0026611736975610256, 0.00093706196639686823, 0.00069978705141693354, 0.00068931590067222714, 0.00063416961347684264, 0.00027550474624149501, 0.00027787563158199191, 0.00048366561532020569, 0.0005148358759470284, 0.00045713971485383809, 0.00047240752610377967, 0.00041716254781931639, 0.00038192537613213062, 0.00089984590886160731, 0.001668723882175982, 0.00044894905295222998, 0.00033368577715009451, 0.0015794353093951941, 0.00070668611442670226, 0.00062764208996668458, 0.00075017014751210809, 0.001377470325678587, 0.0010695080272853374, 0.00055048032663762569, } };
const TfLiteAffineQuantization quant6 = { (TfLiteFloatArray*)&quant6_scale, (TfLiteIntArray*)&g0::quant5_zero, 0 };
const MODEL_SECTION(EI_MODEL_SECTION) ALIGN(16) int32_t tensor_data7[16] = { -8835, 14830, -18214, -538, -12307, 9836, 28761, -53639, -2703, 16483, 24905, 17114, -15034, 10098, -6854, 10316, };
const TfArray<1, int> tensor_dimension7 = { 1, { 16 } };
const TfArray<16, float> quant7_scale = { 16, { 0.00086404383182525635, 0.00036294059827923775, 0.00020347756799310446, 0.00021802086848765612, 0.00035341916372999549, 0.00031236166250891984, 0.00035006296820938587, 0.00027534936089068651, 0.00031281023984774947, 0.00023408832203131169, 0.00079835945507511497, 0.00063383876113221049, 0.00038471719017252326, 0.00023574293300043792, 0.00049293600022792816, 0.00044415515731088817, } };
const TfArray<16, int> quant7_zero = { 16, { 0,0,0,0,0,0,0,0,0,0,0,0,0,0,0,0 } };
const TfLiteAffineQuantization quant7 = { (TfLiteFloatArray*)&quant7_scale, (TfLiteIntArray*)&quant7_zero, 0 };
const MODEL_SECTION(EI_MODEL_SECTION) ALIGN(16) int8_t tensor_data8[16*1*1*96] = { 
  /* [0][0][][] */ -15,-9,11,-38,15,-8,-43,8,11,-3,-7,14,-1,1,-24,-2,-8,14,-9,-1,10,-28,0,6,0,20,0,127,25,-26,42,-6,-3,3,11,2,-8,13,-39,-12,-15,2,5,32,7,15,4,-1,32,1,-3,18,17,-23,-13,75,1,15,-29,-35,-1,18,-3,-18,-33,-66,-16,33,18,16,16,-17,-9,-37,-8,-32,-28,15,-2,-1,-13,-21,26,23,3,-7,-12,-87,12,-4,5,-2,44,-36,-35,-4, 
  /* [1][0][][] */ 30,-62,-79,-60,127,-20,69,38,-23,-78,-45,-23,-7,-4,-68,39,-69,-2,39,33,12,47,-21,-63,20,-11,-15,-59,40,-16,-78,39,-13,36,-1,-6,11,-15,1,22,-28,30,-26,-24,-43,85,7,4,29,-78,12,-51,-13,38,53,13,-51,-38,-29,-38,27,-25,8,-40,-90,100,-23,-25,-5,-35,-18,8,47,-110,-17,1,37,-56,36,10,10,-19,14,-4,-46,27,-19,42,14,-32,-3,15,25,5,29,96, 
  /* [2][0][][] */ -1,62,-60,-19,79,81,20,81,-8,-113,8,-19,-1,16,24,13,-3,-6,-55,56,21,4,62,25,55,40,-10,-30,40,-3,55,-48,27,45,-13,43,-127,-83,17,14,-7,-52,17,-25,35,-35,-11,54,-13,25,-31,5,92,-8,-8,53,20,16,36,1,29,11,29,-29,28,-8,-43,-6,-21,7,-19,-43,-46,-84,14,48,61,38,22,-19,26,-33,3,-11,-29,36,11,39,3,36,1,-16,-1,-43,-60,7, 
  /* [3][0][][] */ 63,14,94,-10,54,-41,10,-13,-26,-62,6,-36,-1,32,37,105,27,-1,34,10,119,-10,44,8,59,-17,-14,12,35,41,-8,81,-106,18,26,-10,-31,-17,-10,37,-85,-25,61,24,16,44,-43,-86,-64,-38,-51,47,0,-127,7,23,-105,71,55,30,5,100,-13,-50,25,68,-15,-51,35,-27,-1,-60,50,-32,55,-14,14,4,51,33,-36,-79,27,-4,-31,28,17,28,30,11,20,33,34,105,50,-34, 
  /* [4][0][][] */ 24,-1,22,-17,127,42,-2,-12,-43,-45,-32,-35,-48,26,-12,44,24,-85,-39,83,-22,9,23,-10,-5,-5,17,-33,4,-5,60,-28,89,7,-19,19,41,14,8,6,-37,-13,-35,-24,7,-50,-7,8,40,7,-25,16,2,-29,16,-18,20,-12,-25,25,3,59,64,18,44,36,-26,-5,-36,3,34,55,10,-69,-46,-19,22,27,70,-30,-17,-31,3,-9,-59,14,44,49,-43,34,-5,-35,12,16,16,-28, 
  /* [5][0][][] */ 5,-7,1,-1,21,-12,41,-11,-24,-52,-11,15,10,40,5,6,-17,12,7,-9,40,16,-49,77,8,12,9,-101,-7,43,27,37,-9,0,20,-69,31,29,-10,-6,-10,-18,25,-23,5,0,-3,-29,-6,-13,7,-4,0,-29,-12,-50,-16,28,-26,16,77,6,-4,40,6,53,7,74,27,112,12,26,6,4,-19,59,-34,-13,11,7,-12,-7,1,31,-3,23,-11,127,15,36,-7,-11,2,10,-61,28, 
  /* [6][0][][] */ 15,-73,11,-48,-44,14,45,23,8,-4,-24,-81,-38,1,-35,33,24,-10,3,-14,-40,34,8,18,-25,-3,-14,1,-19,12,40,-4,73,17,66,-2,-1,-18,30,-90,-13,86,5,-29,21,-23,-10,25,-16,43,-28,71,-26,-57,-9,-7,3,-59,-12,1,-17,71,36,-89,40,-41,6,-19,-4,-9,127,-3,-55,8,-31,25,-99,-11,14,4,40,38,24,-5,-20,-1,49,22,5,11,46,-33,-19,-2,-50,-14, 
  /* [7][0][][] */ -2,127,31,22,124,53,45,-47,-21,-30,36,-17,-29,20,23,34,17,-47,10,26,37,-39,44,8,5,7,16,4,30,-36,6,15,45,3,-57,-2,16,14,3,87,-42,38,20,21,-8,-28,32,-14,-40,-23,27,0,20,-33,-36,37,51,-7,-22,3,-21,-48,-9,-7,-69,86,-38,-89,-21,-44,-10,69,-8,-24,13,23,58,59,52,-15,-35,-44,-16,-18,-25,59,1,-5,-42,22,-37,-43,-51,-14,30,-15, 
  /* [8][0][][] */ -10,7,47,19,-127,-22,54,-14,24,80,58,-1,-20,18,14,9,-41,9,9,-5,-28,0,-110,68,17,-35,58,-7,7,2,3,40,81,-13,4,-2,-16,-18,-1,43,21,-35,46,6,-37,-8,50,1,-97,20,22,17,-55,-32,-31,46,16,-47,-75,-23,18,-17,-27,-13,8,66,-3,-48,15,-21,-43,-27,29,45,57,-9,-25,-42,-19,24,-82,12,-18,-13,26,25,61,45,18,-32,40,50,1,-2,25,16, 
  /* [9][0][][] */ 7,-109,-11,14,95,96,-31,-20,38,-52,103,96,-13,29,122,-123,10,-12,-14,10,-58,-52,27,-1,-36,32,0,37,-39,25,27,-9,24,23,-100,42,4,14,-22,67,33,-90,-21,65,22,-20,-94,-43,42,42,-19,-78,57,40,-21,-65,-18,115,-14,7,29,-56,-42,127,-74,-23,7,-29,18,35,-55,-95,44,-13,-12,22,60,-74,18,-12,-17,-22,11,31,6,-54,36,-11,28,-29,-68,42,-70,-20,-6,-31, 
  /* [10][0][][] */ -44,-17,-34,-45,-21,-8,66,-24,29,20,30,32,28,-9,-9,-1,-13,22,-30,-16,-12,35,15,15,-5,-14,6,-127,30,-50,48,-30,-7,22,-9,-17,-13,27,-3,-7,6,-34,27,-54,9,-10,20,11,-12,33,-26,-19,-31,-27,-8,-62,23,5,0,-45,24,4,-6,8,-43,89,-15,-34,15,-34,-3,-23,-28,-12,26,53,-5,36,-19,12,-23,2,3,21,9,-5,-12,120,1,-13,12,17,19,-43,41,-34, 
  /* [11][0][][] */ -86,22,1,-7,17,-58,-20,2,-53,-14,-11,22,35,29,-24,-10,49,8,-65,-48,25,-3,-7,3,81,10,60,-5,-15,29,-37,23,-22,28,-7,-12,-16,11,20,2,-27,-10,-10,3,85,17,70,13,46,41,-10,50,12,-68,27,0,-74,-16,-30,-48,-9,-16,-2,18,-4,-28,23,0,26,12,-11,32,-26,11,25,1,-23,80,-125,62,-47,-10,-67,-60,127,26,40,-23,17,44,-34,-57,-26,43,-27,-4, 
  /* [12][0][][] */ 5,-4,-38,-2,73,32,-6,-6,-20,17,18,-5,7,-11,34,-10,-39,-4,13,-16,2,-20,-45,57,-22,47,-20,115,-19,40,-25,4,-16,32,28,41,-23,-17,13,2,-2,-24,-17,6,-9,10,19,20,-6,-8,-4,-22,-19,11,-15,-7,-17,-1,22,20,-12,-25,-3,46,52,-96,14,67,-20,-127,-8,61,-1,9,13,91,3,-18,-6,-10,-20,21,-36,4,15,-13,0,-67,-2,19,4,-1,-47,46,-25,30, 
  /* [13][0][][] */ -79,67,-3,-11,-67,10,-8,21,-45,-21,35,24,84,22,-24,0,-18,37,-45,-10,18,-9,49,-48,63,41,3,4,15,-13,-21,-88,-90,-31,10,1,4,28,27,-9,-34,75,2,18,55,10,-12,0,63,-17,30,79,58,-63,77,-11,-19,60,43,-2,15,36,-19,19,7,-29,11,12,40,20,25,-127,6,-28,-72,2,46,39,-53,-47,76,-25,3,-25,43,-24,90,-7,-11,-1,-24,29,33,-40,-22,19, 
  /* [14][0][][] */ -29,19,-26,-45,35,-2,-9,24,-88,12,20,6,-37,-62,-84,-25,-87,-27,69,10,24,1,14,-110,-37,4,-43,-19,19,-27,-15,-28,-55,-25,11,14,-16,-5,8,10,11,88,-62,-18,-55,16,10,8,127,-31,23,-24,35,65,-106,12,-18,20,-100,11,8,34,40,23,-4,33,-2,5,-58,12,63,31,34,-8,-20,19,54,-79,-29,-97,21,-34,5,33,30,-71,-40,18,-54,22,32,54,12,34,25,-21, 
  /* [15][0][][] */ -45,-78,-5,-34,4,9,-4,-66,-21,17,-4,-26,37,-2,52,-16,-92,1,-18,16,-16,1,-68,-44,-11,9,0,20,-25,-7,73,-92,-9,30,26,17,3,24,-96,8,33,-70,0,30,-28,-42,47,27,58,19,-10,-127,-7,44,-2,37,40,-5,-19,44,9,4,42,-1,3,-5,-4,-5,-21,23,8,36,-44,2,-4,-36,-30,-6,3,3,0,46,-7,69,-14,-49,-29,-28,-41,66,29,77,-40,-2,3,-10, 
};
const TfArray<4, int> tensor_dimension8 = { 4, { 16,1,1,96 } };
const TfArray<16, float> quant8_scale = { 16, { 0.036721862852573395, 0.015424975194036961, 0.0086477966979146004, 0.0092658866196870804, 0.015020313672721386, 0.013275370933115482, 0.014877676032483578, 0.011702347546815872, 0.013294435106217861, 0.0099487537518143654, 0.033930275589227676, 0.026938147842884064, 0.016350479796528816, 0.010019074194133282, 0.020949779078364372, 0.018876593559980392, } };
const TfLiteAffineQuantization quant8 = { (TfLiteFloatArray*)&quant8_scale, (TfLiteIntArray*)&g0::quant7_zero, 0 };
const MODEL_SECTION(EI_MODEL_SECTION) ALIGN(16) int32_t tensor_data9[96] = { 19049, 61775, -2012, -40, 11392, -5640, -531, -901, 5350, 11926, -2705, -235, 221, 6185, 4807, -8933, -4019, -856, -622, 12964, -10786, 12718, -3034, 6332, 21920, 359, -6201, 17053, 14255, -18944, 3165, 21534, 24695, -9898, 2206, 744, -80, -870, 4003, -7096, -5204, -68, -4354, 111, 30357, -463, 12251, -1727, -13266, 1119, -107, -175, -1600, 19960, -2910, 13629, 18069, 587, 34793, -160, -8457, -1040, 1482, -289, -2461, 13086, -1113, -7404, -3460, 2635, -5, -4649, 1156, 77, -1720, -6514, -383, -1609, 41672, -7321, -4613, -11719, -390, 377, 50946, -12647, -11118, -26862, -6048, 10490, -1707, 36172, 302, -2334, -2489, 1080, };
const TfArray<96, float> quant9_scale = { 96, { 0.00012575072469189763, 9.2881702585145831e-05, 0.00012159089237684384, 0.00028101165662519634, 0.00032495250343345106, 0.00014132818614598364, 9.6022151410579681e-05, 0.0001012141874525696, 0.00029622085276059806, 0.0002003461413551122, 0.00030388549203053117, 0.00011451737373135984, 0.00029080180684104562, 0.0002300902851857245, 0.00052426452748477459, 0.00018204082152806222, 0.00019538539345376194, 0.00020019371004309505, 0.00019834740669466555, 8.5519757703877985e-05, 7.7936820161994547e-05, 4.0313105273526162e-05, 0.0001569926826050505, 0.00011460963287390769, 8.4202241851016879e-05, 0.00012467667693272233, 0.00018250767607241869, 0.00018374640785623342, 7.310511136893183e-05, 0.00055682577658444643, 0.00049389898777008057, 0.00024306360865011811, 0.00011951360647799447, 0.00015945945051498711, 0.00028258480597287416, 0.00051751424325630069, 0.0003915601409971714, 0.00022066209930926561, 0.00032571345218457282, 0.0001190317707369104, 0.00025232581538148224, 0.00023424849496223032, 0.00042793457396328449, 6.707779539283365e-05, 0.00037395872641354799, 0.00010271450446452945, 0.00011109028127975762, 0.0003705527342390269, 0.00079548306530341506, 0.00011756511230487376, 0.00051456416258588433, 0.00020727029186673462, 0.00031884197960607708, 0.00013942969962954521, 0.00028492810088209808, 0.00012549381062854081, 0.00015665407408960164, 0.00057215383276343346, 4.6172415750334039e-05, 0.00018665385141503066, 0.00031773693626746535, 0.00041331167449243367, 9.4822273240424693e-05, 0.00015597538731526583, 0.00013390042295213789, 0.00014902108523529023, 0.00035820322227664292, 0.00029523007106035948, 0.00021157940500415862, 0.00015379904652945697, 0.00024662865325808525, 0.00011418609938118607, 0.00030777306528761983, 0.00016190654423553497, 0.00044153397902846336, 0.00028369901701807976, 0.00014944441500119865, 8.0413788964506239e-05, 6.1783779528923333e-05, 0.0001766927307471633, 0.00027972311363555491, 0.00026223791064694524, 0.00017377537733409554, 0.00028221160755492747, 7.0466543547809124e-05, 0.00012696016347035766, 8.7219486886169761e-05, 0.00058007071493193507, 0.00033089288626797497, 0.00014289112004917115, 0.00038997179944999516, 2.8250846298760734e-05, 0.0001614997599972412, 0.00011482215631986037, 0.00036034229560755193, 0.00029559206450358033, } };
const TfLiteAffineQuantization quant9 = { (TfLiteFloatArray*)&quant9_scale, (TfLiteIntArray*)&g0::quant5_zero, 0 };
const MODEL_SECTION(EI_MODEL_SECTION) ALIGN(16) int8_t tensor_data10[1*3*3*96] = { 
  /* [0][0][][] */ -47,-73,-9,127,22,70,72,-57,-15,-17,-15,-5,-29,0,36,2,-9,-43,26,23,18,-127,127,7,-83,9,49,-28,-126,-127,36,24,12,28,60,-17,-30,-10,30,-6,-13,27,-109,71,24,-69,37,47,-18,52,-24,20,2,-7,14,48,-90,-51,-60,-18,-11,1,10,38,68,-25,74,13,-7,16,19,127,23,24,27,0,-11,17,127,-7,-16,15,-28,20,125,20,-75,-16,0,-32,-16,-40,1,-24,-15,24, 127,-127,76,106,-43,127,39,-116,69,5,-17,127,127,-99,-13,15,11,127,127,-111,127,-75,82,67,-127,-116,-65,-34,-56,45,-60,-20,-91,54,-127,-83,-42,-14,-53,63,-1,127,127,81,-52,-114,-112,-50,-15,-127,43,85,65,-32,44,83,-46,41,-79,-113,-45,-41,-61,66,72,-62,27,29,-79,34,-18,90,117,127,14,20,1,58,-33,53,63,127,127,-23,-8,76,-112,127,-118,-101,4,-127,-91,-127,-38,104, -75,-12,31,-84,15,-26,60,-8,80,-34,-28,17,-19,-6,-9,-12,-8,-16,7,-3,-24,-104,30,0,-125,101,8,-54,115,50,-17,10,1,14,15,-29,-9,34,20,13,25,12,-120,64,17,-20,37,14,-15,11,-17,5,-12,1,-2,21,-65,5,-34,53,2,41,32,-1,-7,-39,-30,24,10,3,-4,35,9,-25,-4,4,-12,-6,-85,2,-23,-24,-19,3,-110,9,-32,-23,-49,24,-26,-32,28,-25,-15,0, 
  /* [0][1][][] */ -64,-76,75,-37,-48,93,20,127,-52,-20,-1,-120,26,-114,77,31,-3,-59,-18,89,54,-67,48,49,-96,-13,127,-22,-25,64,120,-102,-127,92,-87,-55,-35,32,-29,95,-49,-27,-4,46,-49,127,-23,66,16,96,20,-1,15,-56,27,31,127,121,-72,-85,127,-32,-36,127,72,-38,-15,-2,127,40,127,96,-40,102,-4,12,14,13,-31,9,-45,125,-81,109,2,33,-53,30,79,-127,-33,-9,127,-69,-23,-1, 65,126,58,-116,127,83,91,39,-127,127,127,-38,-64,-127,-127,127,127,-63,-124,-50,104,96,-123,127,-111,-92,-42,127,-127,109,-127,-127,-87,127,107,127,127,-127,-105,127,-66,-98,113,-127,-127,-37,-127,-127,127,-112,86,43,127,127,127,-127,100,-127,-127,127,20,-78,-127,-100,-127,127,-127,127,-121,-127,-107,-84,-127,-78,127,127,-127,127,-78,127,127,30,-42,-127,60,127,94,45,127,12,127,4,-68,37,127,-127, -53,-13,-49,38,-56,-96,34,-26,19,-33,-29,93,2,92,14,10,-4,65,-6,127,0,-85,-41,8,-76,105,-70,-20,-69,-15,15,-62,-70,38,6,-17,-29,46,-67,41,127,-5,-39,29,-40,-61,16,44,8,118,-11,7,-37,-73,4,19,96,2,1,22,-34,127,90,-52,-43,12,39,-10,-76,124,-19,-85,-1,-53,-16,-21,27,15,76,-37,-73,-42,57,14,-50,-18,73,22,17,61,-44,18,-44,99,-27,-6, 
  /* [0][2][][] */ -68,2,-3,-21,13,-44,68,25,53,-27,-36,-2,19,19,-26,1,-7,66,7,1,-55,-79,1,-7,-28,-54,34,-68,88,39,23,26,17,-9,-12,-45,-6,36,-3,1,-16,-7,-68,104,4,30,12,37,-15,-31,11,-19,22,-1,8,14,-70,23,-14,14,15,0,-21,-5,0,-47,-46,15,-31,13,25,29,13,-19,29,5,17,5,-79,-13,-9,-7,17,14,-127,6,14,-43,-55,-49,-27,-50,9,60,-19,-8, 119,34,-127,-36,-71,-24,40,31,-65,-27,-20,-108,-75,112,-12,37,3,-49,-10,-126,92,-47,-39,2,-112,127,-51,21,-34,-20,-11,-5,-63,14,27,6,-22,-27,127,52,11,-16,69,-35,-37,75,-66,-43,-33,-5,-127,-127,-50,-26,1,39,-65,-8,12,40,-8,-18,9,-48,-54,33,65,-21,114,110,-24,-69,11,-57,5,5,98,4,51,22,12,-96,-51,2,3,8,127,40,-56,39,-19,-108,41,82,-9,26, -56,13,-17,27,16,-67,-127,2,-12,-8,-16,3,16,-26,19,-2,-8,-15,5,17,-51,-71,13,2,15,-95,22,3,-49,-38,-8,16,43,-21,-7,-24,-34,4,42,-40,22,-3,-49,-35,4,65,23,16,-9,-4,9,-8,18,5,-3,-5,-61,-14,3,-38,-12,10,83,-11,35,-2,0,29,2,6,-5,21,-18,17,1,15,35,1,75,-12,2,-8,-8,-18,75,0,43,-39,63,39,-17,-56,-8,3,-14,-16, 
};
const TfArray<4, int> tensor_dimension10 = { 4, { 1,3,3,96 } };
const TfArray<96, float> quant10_scale = { 96, { 0.0053444057703018188, 0.0039474721997976303, 0.0051676128059625626, 0.01194299478083849, 0.013810480944812298, 0.0060064475983381271, 0.0040809414349496365, 0.0043016029521822929, 0.012589385733008385, 0.0085147107020020485, 0.012915132567286491, 0.0048669883981347084, 0.012359077110886574, 0.0097788367420434952, 0.022281242534518242, 0.0077367345802485943, 0.0083038788288831711, 0.0085082324221730232, 0.0084297647699713707, 0.0036345897242426872, 0.003312314860522747, 0.0017133068758994341, 0.0066721891053020954, 0.0048709092661738396, 0.0035785951185971498, 0.0052987588569521904, 0.0077565759420394897, 0.0078092222101986408, 0.0031069670803844929, 0.023665094748139381, 0.020990706980228424, 0.010330202989280224, 0.0050793280825018883, 0.0067770262248814106, 0.01200985349714756, 0.021994356065988541, 0.016641305759549141, 0.009378138929605484, 0.01384282112121582, 0.0050588501617312431, 0.010723846964538097, 0.0099555607885122299, 0.018187219277024269, 0.0028508063405752182, 0.015893245115876198, 0.004365366417914629, 0.0047213369980454445, 0.015748491510748863, 0.033808030188083649, 0.0049965172074735165, 0.021868977695703506, 0.0088089872151613235, 0.013550784438848495, 0.0059257620014250278, 0.012109443545341492, 0.005333486944437027, 0.006657798308879137, 0.024316536262631416, 0.0019623276311904192, 0.0079327886924147606, 0.013503819704055786, 0.017565745860338211, 0.0040299464017152786, 0.0066289538517594337, 0.0056907678954303265, 0.0063333958387374878, 0.015223636291921139, 0.012547277845442295, 0.0089921243488788605, 0.0065364590846002102, 0.010481717064976692, 0.0048529091291129589, 0.013080354779958725, 0.0068810279481112957, 0.018765194341540337, 0.012057208456099033, 0.0063513875938951969, 0.003417585976421833, 0.0026258106809109449, 0.0075094406493008137, 0.011888232082128525, 0.011145111173391342, 0.0073854532092809677, 0.011993993073701859, 0.002994827926158905, 0.005395806860178709, 0.0037068282254040241, 0.024653004482388496, 0.01406294759362936, 0.0060728727839887142, 0.016573801636695862, 0.0012006609467789531, 0.0068637398071587086, 0.0048799416981637478, 0.015314547345042229, 0.012562662363052368, } };
const TfLiteAffineQuantization quant10 = { (TfLiteFloatArray*)&quant10_scale, (TfLiteIntArray*)&g0::quant5_zero, 3 };
const MODEL_SECTION(EI_MODEL_SECTION) ALIGN(16) int32_t tensor_data11[96] = { 1624, 8447, 11930, 22702, 15562, -2433, -1885, 4626, 23800, -3779, 7632, 3620, 7623, 10142, 27931, 1232, 1974, 7547, 12189, 6985, -220, 461, 10101, -1087, 4307, 21, 12947, 8370, 6866, 32880, 58673, 16225, 7021, -606, 9653, 2917, 974, 2266, 22771, -794, 14732, 8004, 38733, -3633, 23466, 9386, 5900, 15376, 56652, 8210, -555, 6316, -3737, -66, -2153, 5707, -552, 14464, 5181, 7465, 4857, 12868, 6668, 4181, 8721, 8021, 4738, -5860, 5052, -2082, 4034, 9845, 19394, 6094, -5039, -3882, 5655, 230, 2468, -1025, 16329, 10976, 4679, 14915, 3186, 306, 7610, 82495, 7586, 10632, 5831, -207, 5282, 8156, 5036, 9988, };
const TfArray<96, float> quant11_scale = { 96, { 0.00023860398505348712, 0.00017592791118659079, 0.00015825571608729661, 0.00010101153748109937, 0.00019020147738046944, 0.00042198685696348548, 0.00041047018021345139, 0.00034901240724138916, 9.8450087534729391e-05, 0.00037374827661551535, 0.00034888580557890236, 0.00023945183784235269, 0.00016514047456439584, 0.00023041127133183181, 8.4676488768309355e-05, 0.00046087833470664918, 0.00022432336118072271, 0.00016455377044621855, 0.00018254434689879417, 0.00016647939628455788, 0.00029116205405443907, 0.0004819545429199934, 0.00019915500888600945, 0.00061109103262424469, 0.00061010627541691065, 0.00027418139507062733, 0.00017311943520326167, 0.0001713521487545222, 0.00023762512137182057, 0.00010689233022276312, 4.8228630475932732e-05, 0.00015091784007381648, 0.00023671505914535373, 0.00036468487815000117, 0.00020831888832617551, 0.00020954343199264258, 0.00051726377569139004, 0.00064630265114828944, 0.0001181543484563008, 0.00067864340962842107, 0.00012793552014045417, 0.00019635270291473716, 6.9084489950910211e-05, 0.00029584544245153666, 0.00013797177234664559, 0.00016408039664383978, 0.00029124229331500828, 0.00017516755906399339, 7.2780094342306256e-05, 0.00025772972730919719, 0.00025267887394875288, 0.00026978278765454888, 0.00028257264057174325, 0.00030802874243818223, 0.00048240873729810119, 0.0001926677068695426, 0.00021024890884291381, 0.00012765520659741014, 0.00039053603541105986, 0.00019580929074436426, 0.00032728220685385168, 0.00010979238868458197, 0.00022199773229658604, 0.00023167949984781444, 0.00028553305310197175, 0.0002378850185777992, 0.00027145666535943747, 0.00022813555551692843, 0.0003296594659332186, 0.0003447147028055042, 0.0002765227691270411, 0.00015955409617163241, 0.00010838459274964407, 0.00016500709170941263, 0.00030440615955740213, 0.00034566034446470439, 0.00029529703897424042, 0.00035612387000583112, 0.00031057032174430788, 0.00037180379149504006, 0.00012595088628586382, 0.00015058777353260666, 0.00019083975348621607, 0.00013038945326115936, 0.00036291516153141856, 0.00024706381373107433, 0.000306964066112414, 4.7161865950329229e-05, 0.00018775305943563581, 0.00021076115081086755, 0.00021905507310293615, 0.00046249281149357557, 0.00027894671075046062, 0.0001938952918862924, 0.00022256064403336495, 0.00017286275397054851, } };
const TfLiteAffineQuantization quant11 = { (TfLiteFloatArray*)&quant11_scale, (TfLiteIntArray*)&g0::quant5_zero, 0 };
const MODEL_SECTION(EI_MODEL_SECTION) ALIGN(16) int8_t tensor_data12[96*1*1*16] = { 
  /* [0][0][][] */ -5,56,-32,56,19,23,19,-8,27,31,-61,91,-6,-127,46,-102, 
  /* [1][0][][] */ 14,56,-4,-20,30,-21,127,-105,6,84,-5,-24,11,-48,25,6, 
  /* [2][0][][] */ -127,44,-36,-25,-5,-17,55,85,-32,47,115,-29,-77,11,33,-57, 
  /* [3][0][][] */ -82,42,34,69,-52,39,72,101,4,70,-127,13,49,-86,-66,-49, 
  /* [4][0][][] */ 7,-12,43,77,-19,76,-7,58,14,-21,8,-3,23,-18,-127,-22, 
  /* [5][0][][] */ -8,-38,52,-29,6,-28,-13,24,-64,102,-30,-127,-17,20,-46,-21, 
  /* [6][0][][] */ 16,3,53,-3,58,81,-99,-71,-18,-8,66,-7,127,-12,-14,-44, 
  /* [7][0][][] */ 21,16,127,-4,-14,-32,16,-2,-72,32,-91,-38,13,-1,31,-6, 
  /* [8][0][][] */ 10,15,73,54,-50,66,10,45,23,-6,10,-84,-31,2,-127,-63, 
  /* [9][0][][] */ 30,-127,66,47,24,-30,-3,20,122,-5,79,10,-33,-4,-106,-36, 
  /* [10][0][][] */ -32,-89,5,-8,-93,14,-7,48,96,127,46,-40,-35,49,87,-2, 
  /* [11][0][][] */ 49,-28,16,-105,-12,-36,-127,-127,-57,34,-15,-12,40,-21,29,-45, 
  /* [12][0][][] */ -1,25,11,-45,-56,-54,-101,-32,-54,-83,-20,23,19,127,86,30, 
  /* [13][0][][] */ -28,-107,-62,49,8,-57,1,-18,66,19,-28,-11,25,27,127,27, 
  /* [14][0][][] */ 4,-51,59,36,27,43,10,127,22,55,6,-45,20,29,-73,104, 
  /* [15][0][][] */ 18,-27,4,58,17,-4,97,4,9,-127,16,-35,-4,-12,-9,-31, 
  /* [16][0][][] */ 36,-70,-54,18,-5,0,47,-72,125,61,98,2,-1,119,62,127, 
  /* [17][0][][] */ -108,-85,54,115,77,66,37,-13,127,-63,-9,-61,-2,50,-117,50, 
  /* [18][0][][] */ -14,15,-17,13,-97,-12,-5,33,-77,-13,-32,-40,-9,-127,74,2, 
  /* [19][0][][] */ 62,-48,83,-91,118,50,-102,114,115,-84,104,76,-25,78,61,127, 
  /* [20][0][][] */ 38,-13,63,-62,-15,2,-34,51,-14,-59,96,-16,12,15,-33,127, 
  /* [21][0][][] */ -79,-42,-8,-47,4,3,-82,-57,-36,58,-10,16,-127,-32,43,2, 
  /* [22][0][][] */ 36,-30,22,-21,20,-71,8,-22,-127,39,-23,-38,-25,-1,83,-18, 
  /* [23][0][][] */ 12,2,10,-14,-2,4,-2,2,-10,-9,43,-19,127,-11,4,-33, 
  /* [24][0][][] */ -5,6,-2,-72,-20,-24,47,9,-49,2,-15,-127,5,-99,38,9, 
  /* [25][0][][] */ -62,10,-46,0,47,-30,-37,-127,-28,84,-30,-50,-55,-40,3,-34, 
  /* [26][0][][] */ 28,6,63,-108,116,-37,-20,15,127,-68,48,-41,-10,83,8,66, 
  /* [27][0][][] */ 100,-28,18,-32,-32,-56,4,-17,-23,20,-127,12,6,-12,-1,46, 
  /* [28][0][][] */ -127,-31,-117,-84,50,-17,57,-61,8,35,-45,8,29,-19,-29,54, 
  /* [29][0][][] */ -87,-33,-2,127,-19,14,12,-33,-14,-6,-66,40,15,-80,25,-48, 
  /* [30][0][][] */ 65,-9,127,-13,63,54,-13,102,-29,-86,70,-64,-23,19,-95,81, 
  /* [31][0][][] */ 24,-91,-6,-59,3,-71,21,-50,-8,51,99,18,-28,90,76,127, 
  /* [32][0][][] */ -7,93,-28,52,-127,38,-82,-41,-61,-28,-4,62,16,61,25,58, 
  /* [33][0][][] */ 34,-19,16,127,5,-23,34,-47,-110,51,56,-19,8,-6,3,113, 
  /* [34][0][][] */ 26,-6,16,-6,89,-45,-127,-33,-50,105,-41,4,-33,15,3,22, 
  /* [35][0][][] */ 79,34,2,26,45,-127,-40,4,-28,9,-82,-6,104,35,-18,9, 
  /* [36][0][][] */ 18,-8,-127,12,41,18,-30,21,-27,-18,-1,-9,6,16,-14,16, 
  /* [37][0][][] */ 6,-7,127,-8,-52,24,24,-58,-10,28,-46,19,25,-6,13,5, 
  /* [38][0][][] */ -127,34,-2,33,52,105,4,-8,27,-15,125,-28,-15,13,-35,-9, 
  /* [39][0][][] */ -12,-4,20,37,37,-9,-127,37,7,29,-5,-30,3,-20,-4,-8, 
  /* [40][0][][] */ 7,72,-6,127,23,55,48,30,-52,-37,-33,65,21,49,-63,-32, 
  /* [41][0][][] */ 27,14,-51,-16,-50,-10,127,93,-53,98,-43,2,-9,65,48,-8, 
  /* [42][0][][] */ 74,-40,-56,-7,12,78,-42,108,116,-98,127,51,-21,31,-79,41, 
  /* [43][0][][] */ -90,3,40,-53,48,30,-97,-101,-25,45,2,-33,-127,-16,33,-1, 
  /* [44][0][][] */ 12,9,-14,-3,2,-23,-19,-56,127,-5,10,53,19,97,2,51, 
  /* [45][0][][] */ -71,-94,8,-94,28,-11,-15,46,15,-80,-16,-21,34,119,-38,127, 
  /* [46][0][][] */ -43,7,-36,88,-86,-31,6,-77,-127,45,-51,-14,-4,24,7,-39, 
  /* [47][0][][] */ -39,-12,-116,127,-11,50,2,-26,10,47,66,63,-32,-14,38,-24, 
  /* [48][0][][] */ -22,-3,36,-127,36,-46,-28,-15,-48,-1,35,-20,-7,68,104,51, 
  /* [49][0][][] */ -51,13,52,92,-15,34,-67,-12,28,-96,-127,-86,-20,-72,-120,-109, 
  /* [50][0][][] */ 14,63,27,-95,74,18,-20,48,127,-10,-37,16,2,-31,5,-25, 
  /* [51][0][][] */ 25,-27,15,-8,40,-20,-49,-127,7,-82,-17,-1,-25,-12,-15,-7, 
  /* [52][0][][] */ 25,4,-6,33,50,-25,-79,118,-85,127,-46,-52,93,102,-6,-39, 
  /* [53][0][][] */ -16,88,0,-93,-40,-7,31,-26,-54,-57,-41,40,19,-127,-84,3, 
  /* [54][0][][] */ -6,11,12,27,42,-26,12,-37,1,25,-9,-22,-12,127,-39,-10, 
  /* [55][0][][] */ -105,127,85,-29,39,2,-19,-17,-54,33,89,-8,-5,-28,109,-15, 
  /* [56][0][][] */ 42,-5,20,-113,85,-12,-9,32,60,-58,57,127,-32,17,106,53, 
  /* [57][0][][] */ -1,-4,21,63,-34,25,62,127,6,7,-9,-51,6,58,0,27, 
  /* [58][0][][] */ 28,127,0,-120,13,37,-21,19,104,-2,-12,84,12,-85,38,61, 
  /* [59][0][][] */ 28,54,52,-127,-60,-13,20,-9,2,12,42,-70,-20,-120,-66,21, 
  /* [60][0][][] */ 57,-14,113,-65,-57,127,44,-39,-10,39,-56,-32,31,2,48,1, 
  /* [61][0][][] */ -33,36,-54,-61,-55,14,119,127,-13,80,-9,6,4,73,28,-30, 
  /* [62][0][][] */ -18,5,-9,-7,-91,9,-64,0,-15,-37,14,-53,4,-127,88,7, 
  /* [63][0][][] */ 7,-24,8,-85,44,4,-127,-121,-54,92,-9,4,64,6,22,-43, 
  /* [64][0][][] */ -22,-10,42,59,88,3,-38,-127,31,-102,-5,-38,-4,-21,-8,-1, 
  /* [65][0][][] */ -127,18,36,-61,18,76,39,-47,-72,18,48,-19,8,15,-18,-21, 
  /* [66][0][][] */ 39,0,72,14,-48,19,-9,43,-37,3,55,-73,-20,45,-127,-18, 
  /* [67][0][][] */ 60,-33,-33,83,78,-49,-102,-127,42,-112,-90,-25,-84,-1,-88,8, 
  /* [68][0][][] */ 47,-21,-43,71,-46,-69,-10,-68,-58,10,23,-44,-4,98,127,-27, 
  /* [69][0][][] */ -17,47,-74,58,-15,-127,42,84,7,20,46,-5,126,26,-20,-11, 
  /* [70][0][][] */ 4,3,-46,-41,-36,5,127,96,-22,51,-24,21,8,43,24,-1, 
  /* [71][0][][] */ 12,-20,-33,-44,21,-6,9,60,-33,-44,-21,10,15,-127,96,19, 
  /* [72][0][][] */ 32,42,-13,25,42,-30,-42,-127,24,61,-52,9,42,57,39,55, 
  /* [73][0][][] */ -45,-127,-26,-56,-96,-31,46,-19,-27,3,-43,-41,14,-57,64,-14, 
  /* [74][0][][] */ -25,36,74,107,-2,13,-127,107,20,-29,-44,-35,5,-6,-14,-9, 
  /* [75][0][][] */ -48,23,-38,12,-28,91,90,127,-11,60,-2,-28,-108,65,21,16, 
  /* [76][0][][] */ 15,-11,-38,-25,50,-76,-127,-103,-13,-22,18,-20,44,-10,62,-28, 
  /* [77][0][][] */ -39,24,-40,-30,-62,-8,-10,-54,127,4,-63,6,-7,50,23,-82, 
  /* [78][0][][] */ -125,-127,-10,96,90,82,-34,44,15,-84,-117,99,41,-19,117,69, 
  /* [79][0][][] */ 36,-15,27,-45,127,13,48,19,83,23,0,36,-3,-25,9,-42, 
  /* [80][0][][] */ -15,-34,59,-122,-20,-44,-1,2,-71,-46,-13,-65,3,127,-42,20, 
  /* [81][0][][] */ 22,-10,38,33,15,51,-16,-24,10,-15,2,-42,-10,36,-127,24, 
  /* [82][0][][] */ -69,-11,30,-127,-9,-33,-14,-53,-33,-25,-43,-91,-17,-103,-80,28, 
  /* [83][0][][] */ -3,22,-42,-91,-60,20,6,37,-81,3,18,-93,8,-127,8,53, 
  /* [84][0][][] */ 127,35,23,47,-56,6,-70,37,-18,-39,118,9,-93,25,91,-88, 
  /* [85][0][][] */ -4,-10,18,-39,36,-15,-39,113,-93,-115,-61,-34,-19,95,91,-127, 
  /* [86][0][][] */ 29,-14,1,4,-45,72,-16,54,-85,-33,16,-16,-3,-127,-24,22, 
  /* [87][0][][] */ 127,-25,34,-9,-26,-26,-13,-1,9,12,-102,27,36,3,-1,24, 
  /* [88][0][][] */ 9,18,-25,7,-27,-13,-29,26,74,0,53,20,-16,-30,127,-89, 
  /* [89][0][][] */ 35,64,-76,-15,-32,-18,24,-51,45,47,31,-41,-41,7,-24,-127, 
  /* [90][0][][] */ -17,-32,6,-78,-68,24,127,-67,99,-79,7,-87,49,-10,-47,-8, 
  /* [91][0][][] */ 20,3,-20,-92,-48,14,50,-30,-51,40,55,60,26,-18,16,127, 
  /* [92][0][][] */ 10,-2,-6,16,47,-18,-58,-127,38,-55,-12,-32,-33,-10,2,-17, 
  /* [93][0][][] */ 65,6,40,-127,-30,12,-37,42,53,-64,89,-21,-26,119,-21,33, 
  /* [94][0][][] */ -124,47,-97,15,75,-127,-14,-2,-5,-65,105,-38,16,6,-20,-16, 
  /* [95][0][][] */ -19,65,23,-127,-5,-6,-30,-1,19,-21,-46,-72,9,21,-56,-20, 
};
const TfArray<96, float> quant12_scale = { 96, { 0.00067404407309368253, 0.00049698736984282732, 0.00044706431799568236, 0.00028535243473015726, 0.00053730944637209177, 0.0011920912656933069, 0.0011595572577789426, 0.00098594219889491796, 0.00027811646577902138, 0.0010558197973296046, 0.00098558457102626562, 0.00067643920192494988, 0.00046651341835968196, 0.00065090006683021784, 0.00023920675448607653, 0.0013019577600061893, 0.00063370203133672476, 0.00046485598431900144, 0.00051567843183875084, 0.00047029578126966953, 0.00082251790445297956, 0.0013614969793707132, 0.00056260271230712533, 0.0017263009212911129, 0.0017235190607607365, 0.00077454838901758194, 0.00048905354924499989, 0.00048406104906462133, 0.00067127880174666643, 0.00030196536681614816, 0.00013624341227114201, 0.00042633520206436515, 0.00066870794398710132, 0.0010302161099389195, 0.00058849022025242448, 0.00059194950154051185, 0.0014612437225878239, 0.0018257718766108155, 0.00033377998624928296, 0.0019171328749507666, 0.00036141130840405822, 0.00055468635400757194, 0.00019516015890985727, 0.00083574821474030614, 0.00038976318319328129, 0.00046351872151717544, 0.00082274456508457661, 0.00049483939073979855, 0.00020560003758873791, 0.00072807329706847668, 0.00071380491135641932, 0.0007621225668117404, 0.0007982532843016088, 0.00087016541510820389, 0.0013627799926325679, 0.00054427643772214651, 0.00059394241543486714, 0.00036061942228116095, 0.0011032443726435304, 0.00055315124336630106, 0.00092455552658066154, 0.0003101578913629055, 0.00062713224906474352, 0.00065448274835944176, 0.00080661626998335123, 0.00067201303318142891, 0.00076685124076902866, 0.00064447126351296902, 0.00093127111904323101, 0.00097380141960456967, 0.00078116270015016198, 0.00045073215733282268, 0.00030618094024248421, 0.00046613661106675863, 0.00085993186803534627, 0.00097647280199453235, 0.00083419907605275512, 0.0010060317581519485, 0.00087734527187421918, 0.0010503267403692007, 0.00035580480471253395, 0.00042540277354419231, 0.00053911254508420825, 0.00036834352067671716, 0.0010252167703583837, 0.00069794262526556849, 0.00086715782526880503, 0.00013322985614649951, 0.00053039280464872718, 0.00059538945788517594, 0.00061881938017904758, 0.0013065185630694032, 0.00078801019117236137, 0.00054774427553638816, 0.00062872242415323853, 0.00048832845641300082, } };
const TfLiteAffineQuantization quant12 = { (TfLiteFloatArray*)&quant12_scale, (TfLiteIntArray*)&g0::quant5_zero, 0 };
const MODEL_SECTION(EI_MODEL_SECTION) ALIGN(16) int32_t tensor_data13[16] = { -1271, -938, -13960, 30877, 26700, 5663, -7797, -5015, 27508, 7290, 30870, 25722, -9153, 13811, 38201, -31023, };
const TfArray<16, float> quant13_scale = { 16, { 0.00043505473877303302, 0.00023267361393664032, 0.00023277888249140233, 0.00022357745910994709, 0.00033504876773804426, 0.00035544642014428973, 0.00029863123199902475, 0.00040047409129329026, 0.00018329346494283527, 0.00022621365496888757, 0.00034204195253551006, 0.00062592572066932917, 0.00049040495650842786, 0.00044211294152773917, 0.00042641005711629987, 0.00027403241256251931, } };
const TfLiteAffineQuantization quant13 = { (TfLiteFloatArray*)&quant13_scale, (TfLiteIntArray*)&g0::quant7_zero, 0 };
const MODEL_SECTION(EI_MODEL_SECTION) ALIGN(16) int8_t tensor_data14[16*1*1*96] = { 
  /* [0][0][][] */ -3,20,-16,27,47,60,-35,-14,43,4,3,3,-5,11,18,58,-4,-16,-8,-7,88,-53,8,-23,-14,-41,-41,-98,-14,-13,38,52,127,4,0,-3,9,-26,-24,13,-25,12,26,-23,5,-27,-16,29,-14,23,1,-10,-38,-15,2,1,40,19,-20,-22,-59,38,-5,-12,12,9,56,5,17,-1,-5,-33,-67,-6,-9,3,2,-84,5,-23,40,-19,-53,-41,26,-15,-4,20,-1,3,11,-38,18,14,-13,115, 
  /* [1][0][][] */ 79,-95,49,82,-14,-77,-5,-40,-27,-107,-11,28,1,-46,-44,-71,-99,8,16,20,-45,-111,-34,29,127,-63,-69,19,-40,104,-23,57,10,5,-51,25,-17,-27,52,-41,-7,-73,79,-32,-50,22,61,-1,25,23,-3,-66,68,-85,60,-28,33,24,-8,-105,31,-81,21,-56,-3,-82,47,53,40,64,-59,-8,-109,33,-29,63,44,101,6,-19,39,3,-80,33,-78,53,-7,60,-48,3,34,9,8,-54,36,2, 
  /* [2][0][][] */ 29,17,19,-23,2,-9,1,55,61,-13,9,72,9,10,47,-4,-20,-19,11,-2,-26,-66,4,-54,0,-15,-31,28,-18,16,127,-59,26,-78,-35,70,28,125,-45,-13,9,-24,2,39,-53,-49,-68,39,26,36,-39,-39,30,5,-10,-39,-22,-3,-5,32,-5,7,88,108,4,-82,21,-74,-5,-18,-22,8,-25,8,-30,11,26,70,1,18,11,94,39,-19,-10,6,3,6,38,3,-1,-61,-47,-2,-7,67, 
  /* [3][0][][] */ -10,-23,-34,32,30,-16,1,-25,-16,15,-1,4,14,-20,45,-2,43,-42,27,10,-17,1,-18,-5,-12,9,6,-7,32,-53,63,-24,28,2,-14,54,-17,-3,-8,15,9,-66,16,-34,1,6,-6,2,-127,49,-14,19,-122,-62,-28,-33,30,13,-16,57,-3,30,12,18,-19,-96,-43,23,56,14,7,22,-43,13,-6,-45,-50,-58,25,-46,10,-22,12,67,36,61,36,9,31,1,-15,8,-33,4,-18,-24, 
  /* [4][0][][] */ 1,-23,9,-61,-2,-13,-43,12,-26,-46,-31,-12,2,67,6,1,49,-13,3,4,-10,25,46,3,-11,-7,21,5,2,-8,0,-7,-35,-2,10,13,32,-19,6,-2,17,6,-97,-24,32,1,-9,-18,0,82,-16,-26,-20,-11,10,-5,3,-34,24,25,18,-6,11,-1,27,-105,25,-14,-45,20,-11,-2,-15,14,-23,19,-17,69,47,10,4,4,127,-38,43,-20,-13,-5,69,1,-4,13,-25,19,-4,-45, 
  /* [5][0][][] */ -15,2,-7,3,-3,-10,6,117,48,-6,-20,-31,2,14,29,16,-24,-19,-3,-33,-44,-4,-6,-51,13,2,23,68,58,1,60,46,-39,26,-14,-15,-52,-53,-27,-1,-26,-20,-4,0,65,4,8,20,9,10,-20,9,-29,-4,-4,-6,-14,-20,-2,34,-51,28,-15,-35,1,16,-26,10,0,15,-5,-15,23,6,-3,-5,3,20,18,118,-2,-49,30,28,5,2,12,-33,1,-16,18,-127,-31,-23,-10,-117, 
  /* [6][0][][] */ -21,-5,-9,-58,-6,-19,-15,2,3,19,-10,4,27,-59,4,-1,1,-59,27,13,6,11,-18,27,71,-6,-8,5,29,-6,17,-8,-29,3,-14,-1,24,16,22,30,-7,-27,-52,-19,-3,-25,29,-127,23,29,24,16,13,5,-2,-40,32,-14,-3,4,36,17,6,9,43,68,27,-21,-20,-19,25,-17,17,8,47,-5,-31,31,8,6,-11,-4,50,-26,-1,49,26,-16,23,14,-32,-4,-15,8,-7,12, 
  /* [7][0][][] */ 11,7,40,-31,-8,3,-5,-33,-1,-11,-11,-9,-15,-85,31,13,-12,-29,-13,-14,15,-13,-28,0,-30,-6,-2,-13,13,13,1,-3,-20,2,-12,-12,2,-6,-31,22,4,-17,-24,25,-7,15,-8,78,-1,25,-11,-25,-25,3,1,-52,36,2,0,5,-9,8,-15,-12,-17,43,13,-34,-18,-7,4,42,-5,-14,-8,7,44,0,2,-16,8,-31,29,1,-35,127,0,3,-38,-16,0,24,-26,1,-7,9, 
  /* [8][0][][] */ -82,43,-64,7,37,-8,-17,30,15,75,-48,9,7,37,69,-12,-1,36,-69,19,7,25,-36,-13,-46,-27,13,4,47,-84,-4,-7,32,-2,13,-5,-25,30,-45,45,15,2,0,-127,-41,4,42,-21,-60,25,-1,66,-118,73,13,-9,9,-25,-25,-31,7,-33,16,21,-33,44,38,-23,-11,2,36,89,-23,25,34,34,-9,-90,-3,-34,-20,-6,24,9,-66,6,15,-50,-9,29,-32,0,37,-19,-16,-21, 
  /* [9][0][][] */ 21,-57,-35,-31,18,21,-18,26,38,-9,-9,19,-35,-24,3,28,-8,8,36,-16,-27,12,-26,-44,32,4,29,-22,-39,-43,-30,3,4,21,15,25,9,44,-40,18,20,7,-19,-88,12,-15,36,-127,-41,-7,4,31,-20,16,-22,1,-52,23,-11,15,19,19,16,34,34,125,39,42,18,-15,14,-24,-28,-3,-41,7,69,-3,25,16,-8,8,22,-41,4,30,-9,-3,-58,50,-39,-5,13,6,5,-23, 
  /* [10][0][][] */ 30,60,-14,25,64,-111,-13,-20,-9,45,37,-7,-20,21,8,-90,17,43,-22,36,-93,-17,-18,-34,-66,-31,-58,45,6,15,9,26,-22,-29,30,-9,71,-23,-14,-14,-22,72,46,-18,-55,-5,-45,9,-20,-19,-44,-9,-13,-16,1,-12,18,27,-24,-25,6,0,-12,31,-6,39,60,33,20,-2,24,49,-52,-24,-57,-14,-6,34,-24,14,24,-3,-72,-32,70,-56,98,-11,-21,3,28,-10,78,34,-12,-127, 
  /* [11][0][][] */ 41,40,-35,31,-3,18,54,1,-4,-16,-28,-14,10,-8,37,5,-3,-13,-99,-6,-2,14,1,-13,-38,-25,-13,-4,1,16,0,-12,2,15,-1,24,5,16,-8,24,6,26,62,-98,27,-37,-2,-4,-127,15,11,-52,24,18,-16,14,-14,-10,4,0,9,-13,-9,10,-58,52,-24,4,21,-7,22,7,-59,-27,12,32,-5,-39,-52,6,10,-3,91,46,1,-7,-14,-13,-1,31,-20,-4,-9,11,-24,10, 
  /* [12][0][][] */ -27,-11,5,1,-26,31,9,12,127,3,-14,1,2,1,-42,-31,20,14,20,69,54,32,-16,-26,-2,4,11,-21,-98,5,34,-36,6,-4,-9,-17,25,9,34,6,-38,-18,-1,8,0,28,-1,-4,23,5,-34,14,8,-1,1,-7,68,-28,10,11,24,-11,8,-10,7,30,-42,-1,1,-3,-14,-31,11,11,-70,2,32,-1,20,-65,-13,9,49,40,-18,-9,-34,-28,13,31,-10,45,-9,-23,13,4, 
  /* [13][0][][] */ 28,-5,-28,30,27,-3,8,2,-6,1,7,-3,11,-15,8,-13,18,-67,-39,9,-13,-20,11,2,9,6,-3,-5,-12,-35,-5,15,1,3,11,40,15,1,6,12,2,10,28,42,19,15,-10,-127,18,-2,6,3,-15,-5,15,5,-9,14,20,9,9,18,-2,8,-14,-18,-13,-52,10,10,-7,-32,-14,36,-10,19,-26,2,14,-2,27,-9,-13,21,17,29,9,21,-3,-2,22,-8,5,11,-9,-10, 
  /* [14][0][][] */ -118,-52,28,48,30,-25,-37,9,-19,5,-12,16,61,19,-127,3,79,-18,-12,23,-17,-6,45,23,-107,9,28,-18,-40,-72,-37,-4,1,0,24,-64,23,31,-3,14,14,31,-7,-37,10,125,75,59,-121,55,10,28,-56,-17,36,1,10,15,61,62,35,50,6,47,5,-12,-42,48,8,77,-56,-84,-75,-4,-2,45,-17,36,87,-8,60,16,22,25,44,8,50,31,20,44,70,-7,-2,28,21,-22, 
  /* [15][0][][] */ 92,-15,31,12,1,72,31,-24,-12,49,7,5,-96,-5,-14,34,17,50,45,-16,6,16,-77,66,36,7,49,1,26,44,-60,-70,17,-61,47,-8,38,-34,-55,-116,-11,38,10,48,2,56,-23,-38,105,-46,-51,20,51,-127,66,-106,-2,-63,18,24,-120,3,24,24,78,-20,-43,46,-22,76,-27,25,51,26,14,7,22,-52,72,-15,-15,5,41,90,-17,-11,0,-54,9,-19,69,1,-64,58,26,-17, 
};
const TfArray<16, float> quant14_scale = { 16, { 0.01848982647061348, 0.0098886284977197647, 0.0098931025713682175, 0.0095020420849323273, 0.014239572919905186, 0.015106472186744213, 0.012691827490925789, 0.017020149156451225, 0.0077899722382426262, 0.0096140801906585693, 0.014536782167851925, 0.026601841673254967, 0.020842211320996284, 0.018789799883961678, 0.01812242716550827, 0.011646376922726631, } };
const TfLiteAffineQuantization quant14 = { (TfLiteFloatArray*)&quant14_scale, (TfLiteIntArray*)&g0::quant7_zero, 0 };
const MODEL_SECTION(EI_MODEL_SECTION) ALIGN(16) int32_t tensor_data15[96] = { 10806, -9266, 3755, 42343, -1705, -4918, -10947, 4499, -3234, 551, 2864, -2041, 1287, -2311, 5996, -7464, -1885, 17623, 27160, 2359, 2971, -2350, -752, 372, 16162, -302, -1460, -4331, -5562, -7026, 5450, -8971, 382, -1752, -492, 11214, 999, -3681, 20651, 167, -463, 1867, -8899, -7962, -7047, 70945, -449, 14470, 29813, -12703, -242, 5121, 6239, -618, -4242, 2124, -10512, 2019, 1955, -5792, -2320, -830, -13618, 53, 1622, 15987, 29805, 23217, -11945, -62, -7431, -1170, 51246, 10944, 380, 400, 18067, 31583, -984, -4870, -1658, -5460, 1008, -3067, 767, 242, 1486, -56, 1724, -3376, -195, -240, -1074, -629, 44, 45530, };
const TfArray<96, float> quant15_scale = { 96, { 0.00019478581089060754, 0.00011449083831394091, 0.00027667160611599684, 4.7878460463834926e-05, 0.00017053610645234585, 0.00016517296899110079, 0.0003542568301782012, 9.6533251053187996e-05, 0.00010526158439461142, 0.00041188023169524968, 0.00016373662219848484, 0.00032581295818090439, 0.00010764870967250317, 0.00046316959196701646, 0.00017114372167270631, 0.00010368530638515949, 0.00011813532182713971, 0.00030382187105715275, 5.4297532187774777e-05, 0.00018588543753139675, 4.6456101699732244e-05, 0.00021353873307816684, 0.00013995783228892833, 0.0003815468808170408, 0.0002274995349580422, 0.00027290976140648127, 0.00014426109555643052, 0.00018890314095187932, 0.00011511425691423938, 0.00011560196435311809, 0.00014530023327097297, 0.00018551421817392111, 0.0001399750035488978, 0.00014591842773370445, 0.00019604011322371662, 0.00021008233306929469, 0.00047299548168666661, 0.0001313242973992601, 6.0819198552053422e-05, 0.00016360210429411381, 0.0002158252609660849, 0.00032383849611505866, 0.00040140884811989963, 0.00014288839884102345, 0.00018645342788659036, 5.9437079471535981e-05, 0.0002179293951485306, 0.00024635955924168229, 8.6470754467882216e-05, 0.00018536923744250089, 0.00024536417913623154, 0.00026603811420500278, 0.00027742929523810744, 0.00028871020185761154, 0.00031246390426531434, 0.00045355188194662333, 0.00040266953874379396, 0.00022190054005477577, 0.00012434335076250136, 9.4655079010408372e-05, 0.00032483431277796626, 0.00017264261259697378, 0.00027868844335898757, 0.00013843704073224217, 0.00023671159578952938, 0.00017926425789482892, 8.6042724433355033e-05, 7.6994067057967186e-05, 0.00037579040508717299, 0.00027245798264630139, 0.00023608148330822587, 0.00013515142200049013, 0.00011218680447200313, 0.00015489190991502255, 0.00015493326645810157, 0.00027003607829101384, 0.00049896887503564358, 6.2935410824138671e-05, 0.0003058999718632549, 0.00036444028955884278, 0.00017464853590354323, 0.00039130458026193082, 0.00012558705930132419, 0.00015089652151800692, 0.00013010280963499099, 9.3327529611997306e-05, 0.00016167497960850596, 0.00019011260883416981, 0.00022952050494495779, 0.00011891470057889819, 0.00021450351050589234, 0.00013316878175828606, 0.0001697791158221662, 0.00050884764641523361, 0.028065010905265808, 9.0223111328668892e-05, } };
const TfLiteAffineQuantization quant15 = { (TfLiteFloatArray*)&quant15_scale, (TfLiteIntArray*)&g0::quant5_zero, 0 };
const MODEL_SECTION(EI_MODEL_SECTION) ALIGN(16) int8_t tensor_data16[1*3*3*96] = { 
  /* [0][0][][] */ -17,7,-21,104,-17,22,-61,-53,16,-6,101,-9,4,-8,-4,54,5,16,-35,3,72,2,32,-33,2,18,43,50,21,11,23,48,-8,28,10,-15,5,48,-61,-26,20,9,27,17,-85,-56,25,-5,-11,-20,-8,-6,48,6,-9,2,-3,-36,27,-30,28,-1,127,26,-13,-10,10,-53,65,36,2,-7,78,-32,70,4,18,-127,30,65,0,16,127,-14,38,29,-29,-20,35,-7,-14,83,2,19,-2,12, -48,13,-8,10,51,-9,-9,-127,37,13,-127,-4,-17,-13,4,90,19,-31,-13,-15,75,-97,127,27,-61,-30,-105,-15,27,35,-49,18,118,13,-14,-1,-23,127,-63,-127,8,-19,-29,13,46,-127,127,-44,-76,49,49,7,38,-63,32,56,38,41,-100,84,127,35,3,-20,42,-37,-97,-2,36,-30,-18,47,-49,-47,107,-4,-30,-60,-32,65,-67,62,-14,8,-11,48,53,-41,-28,54,-12,74,-127,-32,23,-127, 0,-4,-24,-75,8,17,38,20,-4,0,4,63,1,-13,-10,6,-12,16,-19,18,5,24,24,-32,1,-30,10,12,-7,5,45,-79,42,18,9,-23,13,3,-33,-21,7,2,-16,8,23,-31,21,0,7,-7,5,-5,5,6,-6,8,-7,44,8,-2,11,-17,3,-18,-27,-17,30,-50,-105,-7,41,-17,-127,-23,-11,16,10,-11,5,11,-13,24,-35,-3,-40,22,26,36,-25,-16,25,-11,20,7,-2,-45, 
  /* [0][1][][] */ -41,59,-19,38,-86,-15,-9,-43,25,95,-45,-21,-32,-25,-7,61,127,-24,-88,-13,58,-127,-27,16,-35,-46,-127,-5,37,36,-50,28,-127,-74,-58,3,65,-3,-50,47,-20,86,1,-3,35,-53,-13,-32,127,43,-3,21,44,10,-38,-17,31,9,-125,127,-35,-88,20,127,-59,-35,-86,126,-35,127,-18,54,-35,-53,37,8,-35,-68,127,47,127,36,7,-1,127,28,-96,46,-38,-35,-101,41,99,102,29,-59, 127,127,127,127,-46,-127,127,23,127,-127,17,-127,-108,127,127,127,-15,-127,-62,-127,127,22,-66,127,127,127,-55,-127,127,127,-127,127,-9,-127,-125,127,-127,-44,94,110,-127,-127,127,127,127,-120,-106,127,-13,127,-127,-127,-127,127,127,-127,127,-127,-42,40,-105,-28,-72,-68,127,127,-70,127,127,-105,-127,127,-42,127,-127,-127,-127,127,-74,127,-43,127,80,127,-38,-127,-26,-108,-127,-125,-21,-127,-21,-127,-127,115, -24,65,-39,1,127,71,-20,47,4,25,-13,-4,-26,-31,-13,-7,-104,-23,-127,39,30,76,-11,-115,-33,-40,124,73,9,34,72,9,126,-45,127,-3,55,5,-95,14,35,23,-23,1,-22,-53,-13,-43,81,15,-12,40,-6,-3,-78,-14,23,19,127,-87,3,127,0,-37,-111,-27,-75,99,15,-16,112,25,-19,-55,12,47,-28,-6,-43,-3,-46,8,47,24,-90,34,127,-48,32,-22,127,-10,-112,35,34,20, 
  /* [0][2][][] */ -5,-41,-22,-61,-5,14,41,31,0,10,-21,52,24,-35,-8,7,42,2,13,21,-9,30,-15,-25,2,-23,9,5,-10,-7,49,-75,-38,68,-29,-25,31,-35,-62,17,9,10,-34,20,12,-80,-12,-1,-9,6,17,-6,7,2,-23,6,0,43,-50,33,-4,-12,4,17,-5,-9,23,-53,-55,11,-20,-12,-119,-31,0,17,15,-12,57,17,24,22,-40,16,11,24,-21,9,4,26,22,-5,21,40,-7,-31, -28,-10,-27,25,-45,75,-24,63,7,-6,55,-12,127,-8,-18,-16,0,-41,-59,23,-22,78,-43,-110,-47,-46,102,71,13,43,54,-2,-124,65,-15,-23,-28,-27,-127,-3,44,-13,-14,37,-26,-46,-17,-48,-61,28,69,25,-12,-79,29,52,18,26,74,-55,21,-58,-10,0,19,-25,-127,-57,-10,-26,-62,24,35,-44,-29,-7,-44,24,-55,1,51,35,20,11,5,62,-94,127,15,127,-30,-19,116,-21,46,82, -10,-35,-27,28,12,66,-42,11,4,-6,1,13,11,-51,-9,-11,-44,-6,17,20,-23,5,-20,4,-4,20,-2,51,-2,-6,34,29,18,43,19,-23,-6,-26,-31,7,10,-12,21,9,-73,-32,-12,4,-1,-15,-1,-4,-9,9,-19,-5,-1,-50,13,-28,-20,50,8,-29,-10,-2,36,-54,46,6,53,-21,31,-55,-17,22,11,10,-6,23,-30,33,88,-15,-17,53,39,-10,108,13,3,-19,11,-22,-6,-50, 
};
const TfArray<96, float> quant16_scale = { 96, { 0.008278396911919117, 0.0048658605664968491, 0.011758542619645596, 0.002034834586083889, 0.0072477841749787331, 0.0070198508910834789, 0.015055914409458637, 0.0041026631370186806, 0.0044736173003911972, 0.017504910007119179, 0.0069588064216077328, 0.013847050257027149, 0.0045750699937343597, 0.019684707745909691, 0.0072736078873276711, 0.0044066254049539566, 0.0050207511521875858, 0.012912428937852383, 0.0023076450452208519, 0.0079001309350132942, 0.0019743843004107475, 0.0090753957629203796, 0.0059482078067958355, 0.016215741634368896, 0.0096687301993370056, 0.011598664335906506, 0.0061310967430472374, 0.0080283833667635918, 0.0048923557624220848, 0.0049130832776427269, 0.0061752600595355034, 0.007884354330599308, 0.0059489374980330467, 0.0062015331350266933, 0.0083317048847675323, 0.0089284991845488548, 0.020102307200431824, 0.0055812825448811054, 0.0025848159566521645, 0.0069530890323221684, 0.0091725736856460571, 0.013763135299086571, 0.017059875652194023, 0.0060727568343281746, 0.0079242708161473274, 0.0025260758120566607, 0.0092619992792606354, 0.010470281355082989, 0.0036750070285052061, 0.007878192700445652, 0.01042797788977623, 0.011306620202958584, 0.011790744960308075, 0.012270183302462101, 0.013279715552926064, 0.019275953993201256, 0.017113454639911652, 0.0094307726249098778, 0.0052845925092697144, 0.0040228408761322498, 0.013805458322167397, 0.0073373108170926571, 0.01184425875544548, 0.0058835740201175213, 0.010060242377221584, 0.0076187308877706528, 0.0036568157374858856, 0.0032722477335482836, 0.015971092507243156, 0.011579464189708233, 0.010033463127911091, 0.0057439352385699749, 0.0047679389826953411, 0.0065829060040414333, 0.0065846638754010201, 0.011476532556116581, 0.021206177771091461, 0.0026747549418359995, 0.013000749051570892, 0.01548871211707592, 0.0074225626885890961, 0.016630444675683975, 0.0053374501876533031, 0.0064131021499633789, 0.0055293692275881767, 0.0039664199575781822, 0.0068711861968040466, 0.0080797858536243439, 0.0097546214237809181, 0.0050538745708763599, 0.0091163991019129753, 0.0056596733629703522, 0.007215612567961216, 0.021626023575663567, 1.1927629709243774, 0.0038344820495694876, } };
const TfLiteAffineQuantization quant16 = { (TfLiteFloatArray*)&quant16_scale, (TfLiteIntArray*)&g0::quant5_zero, 3 };
const MODEL_SECTION(EI_MODEL_SECTION) ALIGN(16) int32_t tensor_data17[96] = { 15828, 1449, 8511, -612, 4303, 4934, 18546, 4832, -1249, 14394, 5288, 1190, 7122, 32419, -360, -1825, 9379, 9113, 2266, -160, -700, 14473, 4435, 3317, 8601, 4613, 4086, 3971, 52, -75, 6458, 8302, 14601, 1887, 7156, -661, 17674, 5905, 745, 4274, 785, 11968, 15220, 5056, 2844, 12064, 15656, 5303, 4607, 3788, 292, -773, 18501, 6556, 7514, 13666, -268, 6257, 2924, 3486, 11594, 6471, 2365, 5349, 7371, 3848, 5511, -648, 17538, 9032, 9191, -1240, -1358, 2597, 1781, 3146, 15627, 11807, 12512, -2209, 5359, -4032, -1682, 528, 6210, 3750, 6631, 4211, 13903, 4520, 9140, 3618, 15971, 18862, -9488, 13529, };
const TfArray<96, float> quant17_scale = { 96, { 0.00016516524192411453, 0.00024080858565866947, 0.00016109789430629462, 0.00087906472617760301, 0.00037595155299641192, 0.00018901992007158697, 0.0001674110972089693, 0.00073122285539284348, 0.00036590400850400329, 0.00012595273437909782, 0.00027040959685109556, 0.00067418732214719057, 0.00038731948006898165, 0.0001494588068453595, 0.00025820720475167036, 0.00037254075868986547, 0.00023645572946406901, 0.00025646763970144093, 0.00019951938884332776, 0.00085528334602713585, 0.00042535655666142702, 0.0001710292708594352, 0.00033386822906322777, 0.00024568301159888506, 0.00020490727911237627, 0.00044933854951523244, 0.00035024757380597293, 0.00022757629631087184, 0.00080830033402889967, 0.00035896990448236465, 0.00022574712056666613, 0.00022523925872519612, 0.00013248462346382439, 0.00057378568453714252, 0.00023540193797089159, 0.00044615994556806982, 0.00012856163084506989, 0.00044674612581729889, 0.00061887630727142096, 0.00022140478540677577, 0.00063394499011337757, 0.00015743394033052027, 0.00013949289859738201, 0.00014657483552582562, 0.00039435789221897721, 0.00027077968115918338, 0.00017948415188584477, 0.0002767202677205205, 0.00034191855229437351, 0.00023070572933647782, 0.0004097873461432755, 0.00085233506979420781, 0.00014495322830043733, 0.00023968037567101419, 0.00031459316960535944, 0.0001351970131509006, 0.00039470932097174227, 0.00027880724519491196, 0.00027088014758192003, 0.0004575453931465745, 0.00014548638137057424, 0.00020960248366463929, 0.00045133312232792377, 0.00051697110757231712, 0.00014757775352336466, 0.00028589004068635404, 0.00035504662082530558, 0.00051853281911462545, 0.0001529574510641396, 0.00012577351299114525, 0.00021693723101634532, 0.00039416993968188763, 0.00026973139028996229, 0.0004984490224160254, 0.00023708955268375576, 0.00040310027543455362, 0.00015017017722129822, 0.0003814476658590138, 0.00013325178588274866, 0.00056154199410229921, 0.00020114827202633023, 0.00051229243399575353, 0.00022863390040583909, 0.00047014918527565897, 0.00025385222397744656, 0.00041260139551013708, 0.00024554418632760644, 0.00033014838118106127, 0.0001213511495734565, 0.0003463815082795918, 0.00015040881407912821, 0.00046228279825299978, 0.00013163995754439384, 0.00014599130372516811, 0.00030930075445212424, 0.00024247492547146976, } };
const TfLiteAffineQuantization quant17 = { (TfLiteFloatArray*)&quant17_scale, (TfLiteIntArray*)&g0::quant5_zero, 0 };
const MODEL_SECTION(EI_MODEL_SECTION) ALIGN(16) int8_t tensor_data18[96*1*1*16] = { 
  /* [0][0][][] */ 55,-27,119,119,58,-40,45,-34,127,-2,-62,-83,31,79,-35,-84, 
  /* [1][0][][] */ 30,69,-10,1,88,0,10,32,51,63,-27,127,-12,-23,78,-100, 
  /* [2][0][][] */ 22,-70,3,1,-70,54,-43,93,-74,-102,9,67,4,-127,99,-102, 
  /* [3][0][][] */ 127,119,4,45,-125,-6,-68,-18,0,-4,121,-60,-54,105,-49,-48, 
  /* [4][0][][] */ 3,-19,22,14,-34,41,-23,62,-68,-52,-10,1,2,-127,25,10, 
  /* [5][0][][] */ 117,-56,-18,6,-9,-106,-27,7,-12,-2,-127,-3,34,-4,-4,18, 
  /* [6][0][][] */ -127,-77,-5,105,-60,5,-46,35,-108,-87,-63,-32,34,59,9,98, 
  /* [7][0][][] */ -27,19,-85,41,37,-127,-16,35,-4,-40,18,-8,-13,11,-38,10, 
  /* [8][0][][] */ 34,-55,-12,-14,2,30,-59,-60,-18,10,-76,8,-127,-10,-3,27, 
  /* [9][0][][] */ 25,-59,57,127,-12,15,-4,-66,112,-82,-4,-28,11,37,-65,19, 
  /* [10][0][][] */ -127,-63,-10,-39,94,41,39,86,103,-69,-78,27,84,-88,-89,73, 
  /* [11][0][][] */ 41,-11,-127,24,57,31,-17,43,-15,-35,-14,-3,-4,20,-51,3, 
  /* [12][0][][] */ 117,-49,9,-4,-9,-65,-52,-24,51,9,-127,-24,-57,-19,4,71, 
  /* [13][0][][] */ 38,-49,16,-52,117,24,-77,-127,76,-44,25,18,-15,-33,50,-40, 
  /* [14][0][][] */ -51,21,-97,-49,73,-127,53,-60,51,37,-4,-91,22,96,-13,32, 
  /* [15][0][][] */ 38,-10,53,37,54,-49,-37,-3,18,-48,-81,-2,-127,-68,-20,55, 
  /* [16][0][][] */ -127,58,17,19,-1,95,30,76,-19,13,110,14,-3,15,6,-55, 
  /* [17][0][][] */ -11,-10,-47,-34,-38,11,43,80,-21,127,-18,12,-11,78,66,4, 
  /* [18][0][][] */ 9,127,-50,5,-13,-2,62,-59,16,106,-52,100,15,-47,23,-84, 
  /* [19][0][][] */ 7,-12,28,10,6,37,1,17,10,5,-42,-4,-127,0,-11,30, 
  /* [20][0][][] */ 92,-63,-1,-76,-28,22,35,-63,-42,20,-127,-27,17,12,47,22, 
  /* [21][0][][] */ 53,-11,127,37,-27,61,24,6,8,26,-13,-17,-20,93,-4,0, 
  /* [22][0][][] */ 22,9,24,11,-14,13,21,127,11,-5,21,45,-8,36,24,15, 
  /* [23][0][][] */ -34,23,-83,4,0,-127,8,33,-11,-26,-5,-24,-50,8,4,41, 
  /* [24][0][][] */ 51,-76,13,-55,55,5,-29,-9,35,37,58,93,-34,88,127,42, 
  /* [25][0][][] */ -127,-81,-54,3,18,15,20,-34,-68,-1,-80,19,24,38,21,49, 
  /* [26][0][][] */ 8,3,50,-5,-10,16,-39,66,-88,-65,-1,12,2,-127,37,-20, 
  /* [27][0][][] */ -122,44,-61,29,24,-33,14,32,15,-25,127,30,-21,-11,-21,-17, 
  /* [28][0][][] */ -17,-8,19,33,1,5,17,86,31,16,-25,-4,-127,-10,-11,41, 
  /* [29][0][][] */ -13,56,37,-37,38,-13,22,-26,-127,32,-31,2,-1,34,-86,11, 
  /* [30][0][][] */ -12,-2,-127,-31,29,-49,5,10,-14,-11,-5,-21,-37,-31,16,11, 
  /* [31][0][][] */ 127,-31,-119,21,48,15,-41,69,-16,0,-72,-32,12,-5,-95,25, 
  /* [32][0][][] */ -127,23,25,43,41,100,31,51,53,-16,124,34,-44,35,-6,-9, 
  /* [33][0][][] */ -2,-25,127,-22,-73,30,-2,-32,3,-2,3,30,-17,28,54,23, 
  /* [34][0][][] */ -6,-27,-48,-107,13,-7,24,-19,-25,-39,-36,-127,-14,-1,44,22, 
  /* [35][0][][] */ 0,-29,37,53,48,-17,25,-13,-119,40,-13,21,-21,127,-37,-44, 
  /* [36][0][][] */ -127,50,-24,-10,-19,39,41,93,-14,37,121,-21,15,20,1,-33, 
  /* [37][0][][] */ -39,21,127,-28,-74,-68,30,-34,10,21,-14,8,-13,-59,60,7, 
  /* [38][0][][] */ 19,-2,-12,29,35,-42,-34,8,-22,-13,54,-6,127,27,-21,7, 
  /* [39][0][][] */ -21,-15,-10,-50,-42,-107,71,127,-46,-12,5,-41,-1,45,45,68, 
  /* [40][0][][] */ 67,-10,-20,-17,-9,78,-23,13,17,5,24,-5,127,7,-26,-17, 
  /* [41][0][][] */ -6,-12,-30,-127,22,-10,-27,-71,-3,-50,7,-42,-4,-23,-13,28, 
  /* [42][0][][] */ 31,53,-2,111,-115,-7,-126,-12,-73,-80,105,-88,-64,127,-47,0, 
  /* [43][0][][] */ 24,118,-27,127,21,23,39,-73,-34,100,-7,23,15,-43,47,41, 
  /* [44][0][][] */ -12,-37,-127,32,50,70,-50,49,-5,-21,37,-25,2,-37,-43,0, 
  /* [45][0][][] */ 14,31,-4,-127,-25,10,56,-3,-28,38,-41,9,19,-94,17,-38, 
  /* [46][0][][] */ 19,26,60,-18,11,23,-52,58,24,-44,-26,11,14,127,53,-16, 
  /* [47][0][][] */ 11,-23,25,-38,-43,21,-62,61,-8,-44,22,36,13,-127,50,9, 
  /* [48][0][][] */ 1,-9,7,-127,-6,-22,-5,4,10,-27,19,-12,5,47,-3,54, 
  /* [49][0][][] */ 29,-31,2,118,89,19,9,53,-61,25,31,43,-11,42,127,-20, 
  /* [50][0][][] */ -14,-20,88,-30,16,127,-37,-57,46,-44,115,44,94,10,3,-57, 
  /* [51][0][][] */ 34,45,18,11,11,6,-32,23,32,7,-9,127,18,34,19,-47, 
  /* [52][0][][] */ -28,65,127,2,14,-46,11,-55,-38,14,14,38,-19,94,-123,-18, 
  /* [53][0][][] */ -9,-19,-39,-127,-47,-3,13,-32,-23,35,15,-10,16,-27,43,5, 
  /* [54][0][][] */ 7,12,-20,-60,22,1,-19,9,53,-31,4,-34,-7,127,16,34, 
  /* [55][0][][] */ 1,-37,-31,-7,13,-41,-26,-127,14,-85,-17,-2,-21,-61,-45,-5, 
  /* [56][0][][] */ 40,42,36,51,3,-25,15,127,21,-27,1,-38,75,-10,-51,46, 
  /* [57][0][][] */ 71,-23,127,-36,-65,-57,-1,-41,11,0,-100,19,64,-51,54,25, 
  /* [58][0][][] */ 117,88,7,104,-127,-28,0,49,-1,21,98,-41,-68,-45,-17,-81, 
  /* [59][0][][] */ 116,-42,0,-2,-36,-16,-6,17,-29,12,-127,-13,12,3,2,32, 
  /* [60][0][][] */ -127,21,-19,3,6,12,29,24,8,14,87,-11,-52,-15,18,-23, 
  /* [61][0][][] */ -93,34,34,29,14,18,-63,-28,127,-107,77,3,57,-9,-97,-48, 
  /* [62][0][][] */ -14,-34,-119,53,77,125,-2,104,24,-51,29,5,-69,2,-127,-4, 
  /* [63][0][][] */ -41,10,127,-39,-55,-59,32,-35,4,15,-5,12,-13,-47,65,24, 
  /* [64][0][][] */ 26,56,-11,13,43,-15,77,-127,-27,94,-2,-33,-11,-110,-8,57, 
  /* [65][0][][] */ 2,27,12,-22,78,5,-6,-127,-30,-55,-19,-38,-17,-51,40,11, 
  /* [66][0][][] */ -127,4,-15,11,-46,20,14,-36,-73,-39,-75,49,53,23,45,75, 
  /* [67][0][][] */ -19,-41,0,127,9,-1,-28,26,61,28,15,-17,-23,-49,-89,-27, 
  /* [68][0][][] */ 8,15,-6,127,-50,-23,-2,-33,-57,30,20,-22,-32,-66,-44,-54, 
  /* [69][0][][] */ 92,98,26,101,58,-12,56,-127,10,118,16,63,4,-26,25,-21, 
  /* [70][0][][] */ 20,-41,-5,-89,107,-37,56,38,77,-28,46,-50,16,115,60,127, 
  /* [71][0][][] */ 7,46,11,79,42,-127,-46,89,40,-104,23,11,10,-54,-56,36, 
  /* [72][0][][] */ -127,-74,-14,51,19,42,-20,22,-55,-34,-86,43,43,21,0,91, 
  /* [73][0][][] */ -9,-23,-14,69,7,-27,-2,-26,76,18,-11,-1,29,127,-65,-33, 
  /* [74][0][][] */ 75,-50,14,-34,-46,-24,40,-13,-47,-14,-122,24,-127,-11,34,54, 
  /* [75][0][][] */ -21,-13,-30,127,-37,19,9,-10,-63,18,-11,-24,2,-56,-12,-39, 
  /* [76][0][][] */ -2,-11,-4,54,32,21,-18,-127,10,-111,0,23,-23,-18,31,-52, 
  /* [77][0][][] */ 127,-36,25,42,-40,-6,-44,-20,46,-7,-38,35,13,8,-40,35, 
  /* [78][0][][] */ -13,-6,43,-2,19,-6,-51,35,45,-22,-38,-23,18,127,32,-29, 
  /* [79][0][][] */ -4,24,37,6,40,48,-41,-57,7,-41,68,-20,127,-28,-28,-39, 
  /* [80][0][][] */ -121,-77,-87,127,9,37,45,-26,-71,40,-102,7,43,-92,-2,35, 
  /* [81][0][][] */ 68,16,-58,44,127,81,-21,-18,2,-86,-12,-57,-10,-1,-98,25, 
  /* [82][0][][] */ 106,111,-11,21,-127,-31,-67,-20,-68,-11,101,-59,-62,90,2,-26, 
  /* [83][0][][] */ 127,47,12,-20,7,-12,-5,27,35,14,88,-32,-59,-28,-30,-86, 
  /* [84][0][][] */ -1,-53,-50,-41,28,28,-9,-127,-33,-65,30,-2,-30,5,-1,-8, 
  /* [85][0][][] */ -25,-18,-45,-45,8,-10,67,98,-1,127,-3,-36,24,79,75,-30, 
  /* [86][0][][] */ 95,-16,0,4,1,-35,0,-25,1,8,-127,13,8,19,-6,25, 
  /* [87][0][][] */ -31,33,10,-39,-12,56,-26,36,-13,-30,30,10,3,-127,12,4, 
  /* [88][0][][] */ 1,-22,-120,-69,61,-18,-33,-127,0,-42,-8,-41,-51,-5,28,-7, 
  /* [89][0][][] */ 31,-20,32,-113,32,24,-43,127,80,-80,27,30,-1,48,27,38, 
  /* [90][0][][] */ -4,8,-31,67,78,-3,96,-102,64,127,-47,40,23,3,-17,-25, 
  /* [91][0][][] */ 49,-16,-46,2,2,-127,-8,-1,-8,8,-61,7,29,-9,3,29, 
  /* [92][0][][] */ 24,19,127,60,39,6,13,50,-49,36,-84,32,18,85,-6,-1, 
  /* [93][0][][] */ 126,-46,-37,-7,-19,-47,12,34,-23,37,-127,3,5,15,9,41, 
  /* [94][0][][] */ 15,-17,43,77,113,-30,-7,56,6,-17,0,55,-9,127,-28,-75, 
  /* [95][0][][] */ -127,50,38,51,17,36,34,6,12,16,124,-2,-22,34,-14,-27, 
};
const TfArray<96, float> quant18_scale = { 96, { 0.00050024216761812568, 0.00072934600757434964, 0.00048792324378155172, 0.0026624563615769148, 0.0011386586120352149, 0.00057249172823503613, 0.00050704425666481256, 0.0022146820556372404, 0.0011082271812483668, 0.00038147778832353652, 0.00081899965880438685, 0.0020419363863766193, 0.00117308902554214, 0.00045267149107530713, 0.00078204181045293808, 0.0011283281492069364, 0.00071616232162341475, 0.00077677314402535558, 0.00060429185396060348, 0.0025904288049787283, 0.001288293395191431, 0.00051800278015434742, 0.0010111992014572024, 0.00074410939123481512, 0.00062061037169769406, 0.0013609285233542323, 0.0010608079610392451, 0.00068926886888220906, 0.0024481294676661491, 0.0010872256243601441, 0.00068372878013178706, 0.00068219058448448777, 0.00040126114618033171, 0.0017378461780026555, 0.00071297067916020751, 0.0013513013254851103, 0.0003893794200848788, 0.0013530767755582929, 0.0018744139233604074, 0.00067057699197903275, 0.0019200530368834734, 0.00047682606964372098, 0.00042248735553584993, 0.00044393670395947993, 0.001194406533613801, 0.00082012062193825841, 0.0005436103674583137, 0.00083811307558789849, 0.0010355815757066011, 0.00069874711334705353, 0.0012411383213475347, 0.0025814992841333151, 0.00043902528705075383, 0.00072592892684042454, 0.00095282017719000578, 0.00040947628440335393, 0.0011954709189012647, 0.00084443396190181375, 0.0008204248733818531, 0.0013857849407941103, 0.00044064008397981524, 0.00063483091071248055, 0.0013669695472344756, 0.0015657697804272175, 0.00044697429984807968, 0.00086588592967018485, 0.0010753429960459471, 0.0015704998513683677, 0.00046326796291396022, 0.00038093494367785752, 0.00065704592270776629, 0.0011938372626900673, 0.00081694562686607242, 0.0015096712158992887, 0.00071808201028034091, 0.0012208849657326937, 0.00045482604764401913, 0.0011553048389032483, 0.0004035846795886755, 0.0017007632413879037, 0.00060922530246898532, 0.0015515992417931557, 0.00069247209466993809, 0.0014239584561437368, 0.00076885177986696362, 0.0012496613198891282, 0.00074368889909237623, 0.00099993275944143534, 0.00036754077882505953, 0.0010490986751392484, 0.00045554881216958165, 0.0014001332456246018, 0.00039870289037935436, 0.00044216934475116432, 0.00093679077690467238, 0.00073439290281385183, } };
const TfLiteAffineQuantization quant18 = { (TfLiteFloatArray*)&quant18_scale, (TfLiteIntArray*)&g0::quant5_zero, 0 };
const MODEL_SECTION(EI_MODEL_SECTION) ALIGN(16) int32_t tensor_data19[16] = { -41569, 2238, 966, -8748, -813, -8215, -10970, -42825, 4298, 25838, 30137, -11735, -4032, -22418, 36775, -46747, };
const TfArray<16, float> quant19_scale = { 16, { 0.00065025791991502047, 0.00075640878640115261, 0.00086975755402818322, 0.0011164700845256448, 0.00076323142275214195, 0.00118792406283319, 0.0010487596737220883, 0.0005338138435035944, 0.00071983662201091647, 0.00060307100648060441, 0.00088038947433233261, 0.00060024001868441701, 0.0012743475381284952, 0.0012692305026575923, 0.00055940874153748155, 0.00061390246264636517, } };
const TfLiteAffineQuantization quant19 = { (TfLiteFloatArray*)&quant19_scale, (TfLiteIntArray*)&g0::quant7_zero, 0 };
const MODEL_SECTION(EI_MODEL_SECTION) ALIGN(16) int8_t tensor_data20[16*1*1*48] = { 
  /* [0][0][][] */ -22,4,-27,14,26,1,-2,108,-46,20,44,2,13,-17,-15,16,13,-15,-9,-11,65,-10,15,127,-9,91,-8,-11,32,-15,21,-31,-15,49,19,-48,16,45,20,-12,-112,-21,19,40,30,23,-126,-54, 
  /* [1][0][][] */ -37,-10,20,10,-35,10,-1,60,-58,-38,9,-46,-26,-13,-5,-6,-26,116,-15,15,5,9,-30,-17,27,-40,22,29,-28,-89,-41,23,-22,-10,37,-7,1,-46,4,14,-22,-30,127,9,16,-3,20,-5, 
  /* [2][0][][] */ -22,-5,-12,-34,-3,-68,3,-19,0,13,14,29,15,19,-18,6,-2,-22,-25,-15,-5,-2,1,-127,-12,77,-15,4,-1,-23,-4,-6,-11,58,12,-2,25,8,28,1,-38,3,-22,-8,-1,-8,14,5, 
  /* [3][0][][] */ -10,34,0,-28,-1,1,3,-6,-18,-3,2,40,-127,7,-4,-2,2,6,-17,-1,-29,9,6,15,-6,-13,1,24,-9,19,4,16,7,1,16,20,-11,26,43,3,10,7,23,-29,7,-4,6,17, 
  /* [4][0][][] */ 36,-28,7,13,20,23,22,-20,-29,4,-15,-17,-2,13,2,13,19,-11,-79,6,-7,14,12,75,3,-24,8,47,5,-75,23,5,9,-33,36,-127,15,32,0,19,-18,15,11,-25,-11,-18,6,6, 
  /* [5][0][][] */ 29,2,-20,62,0,-9,4,26,4,-4,36,10,3,48,0,4,-26,19,28,1,10,3,3,-22,1,-48,0,-22,-4,-11,1,5,62,-127,6,31,-12,-15,15,5,-86,57,18,-6,-8,3,-99,-9, 
  /* [6][0][][] */ 25,-4,7,7,-12,-7,5,-13,-4,5,-2,6,-16,6,6,7,1,-11,127,7,6,12,17,-31,7,3,27,-13,-10,-3,-1,6,1,-8,30,-37,-1,-43,69,13,2,-7,-5,7,-11,3,5,-10, 
  /* [7][0][][] */ -44,-17,-7,33,-13,82,-2,44,-1,32,-2,127,82,0,-11,-3,-3,-23,-6,-17,-29,-7,-15,66,-6,-40,-55,-29,-13,-16,-15,-7,9,1,-26,5,8,-57,99,-9,24,29,-68,-60,17,-10,6,1, 
  /* [8][0][][] */ -45,-48,-1,1,-2,-2,-4,34,-7,-64,0,36,48,7,1,6,-12,59,-33,4,-53,21,-6,-10,-3,4,9,48,-10,111,-8,19,-7,4,-18,-127,-110,66,33,24,21,-8,107,-25,11,29,16,35, 
  /* [9][0][][] */ -22,6,-4,29,17,-36,-6,-2,56,-40,5,54,-57,0,15,5,-7,16,-38,-26,49,9,-16,-13,1,11,47,-31,9,8,11,-8,-7,22,78,-104,-7,-127,-97,9,-25,23,55,9,6,14,-18,-39, 
  /* [10][0][][] */ -22,-6,-34,-127,39,90,10,-10,0,31,27,7,45,-46,-36,15,32,-44,50,-28,27,-24,38,45,-53,-105,13,-30,47,34,40,-41,-26,-85,28,-7,20,-44,9,-37,-37,-62,-14,9,11,13,17,-31, 
  /* [11][0][][] */ -4,56,-6,65,36,-63,-82,-19,6,64,-16,3,-10,57,-3,-76,20,47,8,-5,-48,-103,17,1,12,-44,14,-18,54,-38,18,-88,47,-17,-38,-83,93,22,9,-127,-4,66,97,-72,-14,-54,36,27, 
  /* [12][0][][] */ 123,-3,-14,13,1,18,6,102,22,-10,-60,-24,-2,14,-1,-1,-12,7,-3,-6,5,3,1,20,-4,17,-7,7,-5,14,0,0,0,-64,-10,13,-16,-17,-27,0,-17,-77,4,-127,-57,-11,79,-6, 
  /* [13][0][][] */ 9,6,0,5,7,-11,2,2,-2,9,4,20,-6,3,4,0,7,0,9,1,11,-11,8,-2,2,2,17,127,10,-4,6,-6,4,0,-37,20,10,-6,6,-15,-12,-3,2,5,-1,-1,-9,-11, 
  /* [14][0][][] */ 56,-17,42,-71,47,30,30,-87,-61,-47,0,120,-74,1,61,9,47,20,-56,58,15,13,68,-19,22,60,-29,-103,27,-36,55,41,-2,64,-127,-55,-39,38,91,3,-39,13,46,-7,2,-5,13,-29, 
  /* [15][0][][] */ -5,-47,-77,-38,62,29,71,-54,-17,20,-22,-37,81,21,-111,70,64,54,81,-91,-108,-34,58,-14,-93,48,38,61,54,53,41,-47,31,57,103,127,-22,-113,-10,-32,98,69,125,-53,-3,-38,-21,71, 
};
const TfArray<4, int> tensor_dimension20 = { 4, { 16,1,1,48 } };
const TfArray<16, float> quant20_scale = { 16, { 0.027635961771011353, 0.032147374004125595, 0.036964695900678635, 0.047449976205825806, 0.032437335699796677, 0.050486769527196884, 0.044572286307811737, 0.022687088698148727, 0.030593056231737137, 0.025630516931414604, 0.037416551262140274, 0.02551020123064518, 0.054159767925739288, 0.053942292928695679, 0.023774871602654457, 0.026090852916240692, } };
const TfLiteAffineQuantization quant20 = { (TfLiteFloatArray*)&quant20_scale, (TfLiteIntArray*)&g0::quant7_zero, 0 };
const MODEL_SECTION(EI_MODEL_SECTION) ALIGN(16) int32_t tensor_data21[48] = { 6497, 34035, -1009, 41398, 4629, 123494, -1200, 53586, 4192, 30996, 25470, 708, 1561, 29475, -755, -2124, -282, 2265, 2582, -2165, 270, -1698, -737, -21921, -5168, 46900, 131546, 98201, 3288, 1474, -3686, 625, 23625, -181, 30191, -4030, 41518, 2883, 59829, 1925, 1104, 60185, 1388, 6324, 52938, -15, 2849, 50224, };
const TfArray<1, int> tensor_dimension21 = { 1, { 48 } };
const TfArray<48, float> quant21_scale = { 48, { 6.302113615674898e-05, 3.4189593861810863e-05, 0.00018292362801730633, 5.4545860621146858e-05, 0.00012447510380297899, 7.7384633186738938e-05, 0.00017153078806586564, 0.00010616496001603082, 7.9239071055781096e-05, 3.5371183912502602e-05, 4.4404179789125919e-05, 0.00010291778744431213, 4.2069426854141057e-05, 3.5529032174963504e-05, 0.00017805448442231864, 0.00020091183250769973, 0.00019471225095912814, 6.5628730226308107e-05, 0.0001160045649157837, 0.00014426022244151682, 0.00010496765025891364, 0.00022926865494810045, 9.9424985819496214e-05, 0.00013726922043133527, 9.2773843789473176e-05, 9.2946764198131859e-05, 2.8607611966435798e-05, 7.4760646384675056e-05, 0.00011625595652731135, 0.00014048836601432413, 0.00011549787450348958, 0.00018584297504276037, 5.8602559874998406e-05, 0.0001505474210716784, 3.0555285775335506e-05, 5.9828980738529935e-05, 0.00013687883620150387, 8.9646600827109069e-05, 9.420583228347823e-05, 0.00012574948777910322, 0.00010261877469019964, 9.6739597211126238e-05, 7.1427173679694533e-05, 7.2650524089112878e-05, 2.9132434065104462e-05, 0.00015331525355577469, 9.2730013420805335e-05, 3.2720796298235655e-05, } };
const TfArray<48, int> quant21_zero = { 48, { 0,0,0,0,0,0,0,0,0,0,0,0,0,0,0,0,0,0,0,0,0,0,0,0,0,0,0,0,0,0,0,0,0,0,0,0,0,0,0,0,0,0,0,0,0,0,0,0 } };
const TfLiteAffineQuantization quant21 = { (TfLiteFloatArray*)&quant21_scale, (TfLiteIntArray*)&quant21_zero, 0 };
const MODEL_SECTION(EI_MODEL_SECTION) ALIGN(16) int8_t tensor_data22[1*3*3*48] = { 
  /* [0][0][][] */ 69,-93,97,71,52,-33,107,-65,59,-88,-79,48,50,-40,-73,-89,101,79,49,78,66,-76,-83,51,-33,-40,-62,-64,-67,61,-62,-114,-12,41,68,64,-66,52,-50,-22,50,-73,56,61,-94,10,76,-33, 82,-97,127,86,-77,-69,-58,-84,96,-101,-64,75,79,-109,-97,90,-39,97,82,127,84,-117,52,71,-52,-78,-68,-81,55,79,-29,-127,-86,79,80,84,-82,81,-83,-15,75,-94,82,88,-74,-127,94,-103, 35,-45,70,38,18,-42,-48,-38,42,-30,6,34,28,-79,-56,-2,-54,36,35,70,32,-56,31,26,-28,-46,-43,-23,31,30,88,-89,-83,43,35,34,-30,39,-37,-11,41,-40,35,42,-5,-10,38,-73, 
  /* [0][1][][] */ 92,-113,-41,93,54,-82,127,-89,86,-113,-71,81,83,-110,-14,-127,127,108,74,-38,83,107,-127,72,73,-76,-92,-98,-127,85,-68,-9,-87,71,106,96,-85,78,-81,89,84,-101,87,90,-89,105,94,-92, 127,-127,-64,127,-127,-127,-92,-127,127,-127,-127,127,127,-127,-22,96,-66,127,127,-51,127,127,69,127,127,-127,-127,-127,53,127,-28,16,-127,127,127,127,-127,127,-127,127,127,-127,127,127,-127,-12,127,-127, 63,-77,-33,67,37,-63,-50,-63,57,-41,-60,58,48,-52,-17,10,-62,50,58,-29,56,64,51,64,66,-65,-60,-45,36,54,127,13,-62,70,48,49,-49,60,-59,55,60,-56,54,61,-62,-68,60,-57, 
  /* [0][2][][] */ 45,-51,-46,50,25,-54,63,-43,41,-72,-4,39,56,-73,82,-79,72,51,35,-31,26,-11,-77,30,-24,-45,-48,-49,-74,31,-40,90,-72,37,49,43,-27,36,-42,-86,47,-50,40,45,-23,15,41,-75, 72,-73,-48,82,-57,-64,-74,-68,51,-77,-66,61,74,-46,127,32,-47,60,62,-43,54,-19,41,66,-49,-66,-77,-61,31,61,-23,118,-54,64,58,58,-50,61,-66,-105,68,-67,60,62,-84,49,64,-52, 41,-40,-26,47,28,-20,-19,-34,15,-26,-51,28,31,6,68,24,-35,21,29,-32,28,-2,39,41,-23,-28,-47,-24,34,33,61,66,1,34,16,22,-24,30,-29,-55,28,-31,25,30,-63,8,31,-4, 
};
const TfArray<4, int> tensor_dimension22 = { 4, { 1,3,3,48 } };
